#include "neural_nets.h"
     
// sensor B4
struct NeuralNet sensorB4 = {
 
//     weights and biases for NN (constant)
    //b1[] = 
    {0.16604217886925f, -0.31737002730370f, 0.54388779401779f,
    0.00000000000000f, -0.78790634870529f, -0.26748985052109f,
    0.15489964187145f, -0.32062810659409f, 0.00000000000000f,
    0.31501215696335f, -0.12479205429554f, 0.00000000000000f},
    //b2[] = 
    {-0.00014489139721f, 0.07965230196714f, 0.25170764327049f,
    0.02244779467583f, 0.30194008350372f, 0.36797907948494f,
    -0.06080086156726f, 0.14769737422466f, 0.00000000000000f,
    0.01838253438473f, 0.14234951138496f, 0.27622175216675f,
    0.13505256175995f, 0.05107970163226f, -0.06847283989191f,
    0.00000000000000f, -0.04166177287698f, 0.25169929862022f,
    0.01825903728604f, -0.02796810679138f, -0.06274677813053f,
    0.05002765730023f, -0.19995975494385f, 0.24248646199703f,
    -0.31461486220360f, 0.14486926794052f, 0.20869688689709f,
    0.14323292672634f, 0.21181891858578f, 0.27120548486710f,
    -0.23988780379295f, 0.22023774683475f, -0.00743858655915f,
    0.25725173950195f, -0.01313071884215f, -0.39708247780800f,
    -0.07948632538319f, 0.52954596281052f, -0.00872516911477f,
    -0.14135122299194f, 0.27498257160187f, -0.03152980655432f,
    0.00000000000000f, 0.14561980962753f, 0.00776242464781f,
    -0.06138335168362f, -0.01024295017123f, -0.24130615592003f,
    -0.15297397971153f, -0.08887978643179f, -0.04723224043846f,
    0.30376359820366f, -0.03172715753317f, 0.37846171855927f,
    0.04798473045230f, -0.22889459133148f, -0.10380488634109f,
    -0.11589742451906f, -0.03141536936164f, -0.02675569057465f,
    -0.14770796895027f, 0.14380557835102f, 0.42487651109695f,
    0.04924795031548f},
    //b3[] =  
    {0.04166626557708f, -0.05915231630206f, -0.09645411372185f,
    0.12797239422798f, 0.14197842776775f, 0.01801289990544f,
    0.11759258061647f, 0.12986232340336f, 0.15055789053440f,
    0.06287072598934f, 0.12820111215115f, -0.11246883124113f,
    0.40332847833633f, -0.00142941845115f, 0.51503705978394f,
    -0.32154202461243f, -0.10079448670149f, -0.00520337279886f,
    0.09099533408880f, -0.06272479891777f, 0.33599147200584f,
    0.03773429989815f, 0.03404696658254f, 0.40371283888817f,
    -0.02482698671520f, -0.07167664170265f, -0.05143031850457f,
    0.17088191211224f, 0.29201439023018f, -0.10540264099836f,
    -0.19184003770351f, 0.36789929866791f, -0.03619874268770f,
    0.24250830709934f, -0.09346543997526f, 0.06367091834545f,
    -0.07285177707672f, 0.16150096058846f, -0.10484173893929f,
    0.17929500341415f, -0.03019412420690f, -0.09975206106901f,
    0.07430799305439f, 0.00665530096740f, 0.23097720742226f,
    -0.00648448709399f, -0.06023647263646f, 0.13465766608715f,
    0.18764470517635f, 0.01413951534778f, 0.13077881932259f,
    0.17799319326878f, -0.10575357079506f, -0.08065758645535f,
    -0.02430411055684f, -0.10156732052565f, 0.30491462349892f,
    0.36777794361115f, 0.23835179209709f, 0.04948231577873f,
    0.06613597273827f, 0.15407712757587f, 0.27812048792839f,
    -0.37566760182381f},
    //b4[] =
    {0.38204514980316f, 0.41013580560684f, 0.42522197961807f,
     0.42267590761185f, 0.32272246479988f},
    
    //w1[][] = 
    { {-0.36791148781776f, 0.98130881786346f, -0.32487210631371f,
    -0.36711573600769f, 0.58420467376709f, -0.49738451838493f,
    -0.28036314249039f, 0.22773154079914f, -0.05978479981422f,
    -0.30136653780937f, -0.21901224553585f, -0.44636154174805f},
    {0.82625520229340f, 0.75962835550308f, 0.48946824669838f,
    0.41663491725922f, -0.21139903366566f, 1.55884671211243f,
    0.97123754024506f, 0.41790357232094f, -0.54723441600800f,
    0.85642349720001f, 0.65916848182678f, 0.54642951488495f},
    {-1.79062867164612f, -0.05661831796169f, -1.65643382072449f,
    -0.18384292721748f, 0.25639522075653f, -1.37865412235260f,
    0.41753980517387f, 0.43762364983559f, -0.02387982606888f,
    0.33971637487411f, -0.54981625080109f, -0.34753859043121f},
    {0.35288882255554f, -0.43337506055832f, -0.37776443362236f,
    -0.53579646348953f, 0.12687541544437f, 0.83993417024612f,
    -0.16157312691212f, 0.49787691235542f, -0.05422112345695f,
    -0.16506764292717f, 0.39500641822815f, -0.52216249704361f},
    {-0.19098877906799f, 0.28898715972900f, -0.15409089624882f,
    -0.41704562306404f, 0.81408721208572f, 0.29267111420631f,
    0.19851405918598f, -0.48511326313019f, -0.12259361147881f,
    -0.55657970905304f, -0.49517044425011f, -0.27977794408798f},
    {-0.60726869106293f, -0.35458680987358f, 1.07099282741547f,
    0.48236274719238f, 0.70647501945496f, -0.10734685510397f,
    -0.40771928429604f, 1.29585421085358f, -0.37625303864479f,
    0.74781125783920f, 1.15839803218842f, -0.01310575008392f},
    {0.45915356278419f, 0.66893076896667f, -0.09568991512060f,
    -0.34515878558159f, 0.25436300039291f, -0.13842065632343f,
    1.67526781558990f, -0.84253400564194f, -0.54202085733414f,
    -0.93516176939011f, 1.85404217243195f, -0.13362416625023f},
    {0.35420358181000f, -0.05300750955939f, -0.24089469015598f,
    -0.46138691902161f, 0.26805800199509f, 0.29256656765938f,
    -0.92948132753372f, 0.40454322099686f, -0.10624030232430f,
    0.84962838888168f, -0.08815405517817f, -0.00130885839462f} },
    //w2[][] = 
    { {-2.34621405601501f, -0.04750519618392f, -0.34270027279854f,
    0.86532592773438f, -0.18901555240154f, -0.93742519617081f,
    -0.17411288619041f, 0.85344099998474f, 0.08295479416847f,
    0.14884810149670f, -0.25382968783379f, -0.25834006071091f,
    -0.35798639059067f, 0.01048130821437f, 0.48637914657593f,
    0.03224855661392f, 0.21968635916710f, 0.50342017412186f,
    -0.48650917410851f, 0.62863212823868f, -0.02186243422329f,
    0.02929919213057f, 0.03870242089033f, 0.22154882550240f,
    -0.05594949796796f, -2.01435708999634f, -0.20630699396133f,
    0.31636491417885f, 1.33260250091553f, 0.54578828811646f,
    -0.21030870079994f, 0.15559828281403f, -0.24832074344158f,
    0.26741680502892f, -0.96393859386444f, 0.31420004367828f,
    0.75363212823868f, 0.56383478641510f, 0.21385504305363f,
    0.47575256228447f, -0.06809242069721f, -0.16733343899250f,
    -0.17624321579933f, 0.08853207528591f, -0.54860877990723f,
    0.08238389343023f, 0.23241779208183f, 0.24037764966488f,
    -0.13210074603558f, -0.36228013038635f, 0.18268711864948f,
    0.10496048629284f, -0.07725663483143f, -0.21358619630337f,
    0.17991162836552f, -0.24537144601345f, 0.85372263193130f,
    -0.16918960213661f, -0.14945623278618f, 0.00897799804807f,
    -0.45815756917000f, 0.32010090351105f, 0.06354881823063f,
    -0.01919566653669f},
    {-0.40271231532097f, -0.06800349801779f, -0.45984348654747f,
    -0.03677807003260f, 0.09033095836639f, -1.02661538124084f,
    -0.00430599041283f, -0.44566491246223f, -0.27633854746819f,
    -1.11374247074127f, 0.28583779931068f, -0.38342458009720f,
    0.22252133488655f, -0.23719111084938f, 0.77741134166718f,
    -0.15831458568573f, -0.31147032976151f, 0.18447345495224f,
    -0.18896077573299f, -0.69459432363510f, -0.17472903430462f,
    0.46069538593292f, -0.29073685407639f, -0.47933572530746f,
    -0.18579500913620f, 0.18816050887108f, -1.02266597747803f,
    0.49162921309471f, -1.51091647148132f, 0.34370929002762f,
    0.71342641115189f, 0.16365851461887f, -0.15906678140163f,
    0.04822801426053f, 0.24336460232735f, 0.54323947429657f,
    0.81533735990524f, -0.58046269416809f, -0.17821812629700f,
    0.44161173701286f, -0.00780106289312f, -0.07399688661098f,
    -0.18567773699760f, -0.40774649381638f, -0.19112162292004f,
    -0.13339616358280f, -0.18439283967018f, -0.13594625890255f,
    0.15084326267242f, 0.34478005766869f, -0.28745540976524f,
    0.33051785826683f, -0.09263209998608f, 0.41136580705643f,
    -0.27088940143585f, 0.19648493826389f, -0.75703054666519f,
    -0.08419805765152f, 0.08049738407135f, 0.35728883743286f,
    0.61440593004227f, 0.12627065181732f, -0.42708367109299f,
    0.31631368398666f},
    {-0.34361740946770f, 0.55763000249863f, -1.02104413509369f,
    0.22476705908775f, -1.64417731761932f, -1.00303769111633f,
    0.22209784388542f, 0.15230934321880f, 0.11254766583443f,
    0.35747247934341f, 0.64289963245392f, -0.19891020655632f,
    -0.74574959278107f, -0.81976163387299f, 0.00385078182444f,
    0.23978468775749f, 0.09658494591713f, -0.83200758695602f,
    -0.96544706821442f, 0.01092537585646f, -0.20476561784744f,
    0.32521080970764f, -0.54668927192688f, 0.14961348474026f,
    -1.05766367912292f, -0.50095754861832f, 0.86464160680771f,
    0.35349270701408f, 0.53148764371872f, -0.20236386358738f,
    -0.12363687157631f, -1.19287025928497f, -0.10694875568151f,
    -0.40789437294006f, -1.47680413722992f, 0.84312731027603f,
    -0.40735056996346f, 0.51932078599930f, 0.04676848649979f,
    0.57741945981979f, -0.43739891052246f, 0.24476996064186f,
    -0.15583951771259f, -0.40808221697807f, -0.25405362248421f,
    0.16496890783310f, -0.23151284456253f, -0.70355111360550f,
    0.01532609108835f, -0.51296287775040f, -0.01784789562225f,
    -0.01494449190795f, -0.18092119693756f, -0.06783550977707f,
    -0.16647648811340f, -0.36738285422325f, -0.96467137336731f,
    0.16327059268951f, -0.09630398452282f, 0.46757104992867f,
    -0.14912980794907f, -1.09924292564392f, -1.07220900058746f,
    0.26880058646202f},
    {-0.16133637726307f, 0.21992048621178f, -0.16046208143234f,
    0.03604614734650f, -0.11490197479725f, -0.17884497344494f,
    0.04316669702530f, -0.09015244245529f, -0.12689454853535f,
    -0.06247894465923f, -0.10842880606651f, -0.10663107037544f,
    0.00966033339500f, 0.27797821164131f, -0.00697624683380f,
    -0.11521413922310f, 0.25899192690849f, -0.06218230724335f,
    -0.26711177825928f, -0.11128900945187f, -0.01493296027184f,
    -0.09958903491497f, -0.14637385308743f, -0.24733993411064f,
    0.22757378220558f, 0.09667885303497f, -0.15617936849594f,
    0.01753199100494f, 0.02353331446648f, -0.18228617310524f,
    0.18051162362099f, 0.01674905419350f, -0.02257007360458f,
    0.20046916604042f, 0.08008575439453f, -0.01468250155449f,
    0.26276579499245f, 0.06941217184067f, -0.13733673095703f,
    0.13961726427078f, -0.14784026145935f, 0.22858193516731f,
    -0.06433944404125f, 0.16678339242935f, -0.04173895716667f,
    -0.18418285250664f, 0.23376658558846f, 0.18701806664467f,
    -0.17377108335495f, 0.15241602063179f, 0.25252565741539f,
    0.21423134207726f, -0.02089425921440f, -0.00362026691437f,
    -0.04042448103428f, 0.00587841868401f, 0.00680509209633f,
    0.00037774443626f, -0.12071870267391f, 0.16080453991890f,
    -0.22961013019085f, 0.00062829256058f, 0.04657822847366f,
    -0.25005120038986f},
    {0.87359881401062f, 0.26078495383263f, 1.02141737937927f,
    -1.09635043144226f, -0.47341844439507f, -0.00600343989208f,
    -0.22042214870453f, -0.68362009525299f, -0.07376994192600f,
    -0.69582897424698f, -0.76861441135406f, 0.66354233026505f,
    -1.10074090957642f, -0.38733774423599f, 0.10246187448502f,
    -0.00221529603004f, -0.28266438841820f, -1.01758217811584f,
    0.86198002099991f, -0.38566362857819f, -0.32667142152786f,
    0.31390482187271f, 0.71490371227264f, -0.61578112840652f,
    0.25129020214081f, 0.28782612085342f, 0.03998634591699f,
    -0.12852352857590f, -0.20466142892838f, -0.21616874635220f,
    0.82890135049820f, 0.26292160153389f, -0.29471582174301f,
    0.45373147726059f, 0.57048356533051f, -0.03524022176862f,
    0.19374008476734f, -0.21034754812717f, -0.01191708631814f,
    -0.05740556865931f, 0.44123432040215f, -0.21486379206181f,
    -0.22381223738194f, 0.92828166484833f, 0.09827107936144f,
    -0.23186010122299f, -0.00273712584749f, 0.06449995189905f,
    0.98290544748306f, 0.35182389616966f, -0.23339423537254f,
    0.30740705132484f, -0.15600380301476f, 0.32306283712387f,
    0.56203866004944f, 0.35281354188919f, 0.48434370756149f,
    -0.16416424512863f, -0.18065325915813f, -0.27669629454613f,
    0.90279763936996f, 0.13899630308151f, -0.58150547742844f,
    0.74112612009048f},
    {0.10056716203690f, -0.86962366104126f, -0.11608076095581f,
    -0.14874766767025f, 0.16625678539276f, -0.20191715657711f,
    -0.17038166522980f, 0.69107812643051f, -0.13005807995796f,
    0.64986068010330f, -0.90073674917221f, -0.23909348249435f,
    -0.29946395754814f, -0.23485551774502f, 0.17109039425850f,
    -0.14951582252979f, -0.05999410897493f, 0.38415274024010f,
    -0.93153190612793f, 1.27603149414062f, -0.01368894614279f,
    0.77061390876770f, 0.57613611221313f, -0.99434840679169f,
    0.71832203865051f, -0.93030327558517f, -0.15634436905384f,
    -1.18366909027100f, -0.34424903988838f, 0.21848011016846f,
    0.25261518359184f, 0.70869547128677f, 0.67604845762253f,
    -0.04933789372444f, -0.70770430564880f, 0.61250340938568f,
    -0.60588300228119f, -0.49010571837425f, -0.07802813500166f,
    0.56391173601151f, -1.11429023742676f, -0.14946933090687f,
    -0.05673824250698f, -0.45916539430618f, 1.18125474452972f,
    -0.27916046977043f, -0.05580525845289f, 0.80500966310501f,
    0.03637232258916f, 0.52228528261185f, -0.02519592829049f,
    -0.48954603075981f, -0.17507237195969f, -0.94923204183578f,
    -0.16547991335392f, 0.07483340799809f, -0.19675828516483f,
    -0.05748607590795f, -0.07776850461960f, -0.20425000786781f,
    0.05346435680985f, 0.78421694040298f, 0.11224369704723f,
    0.55408239364624f},
    {0.61841285228729f, 0.67276901006699f, -0.48471802473068f,
    -0.58054053783417f, 0.06085117906332f, 0.27035611867905f,
    0.06838669627905f, -1.02541768550873f, -0.25172293186188f,
    0.54967069625854f, -0.58720582723618f, -1.08888053894043f,
    0.80446070432663f, -0.06852158904076f, -0.41185170412064f,
    -0.11830444633961f, -0.22711415588856f, 0.69679528474808f,
    0.05532123520970f, -0.03164622560143f, 0.07144349068403f,
    0.47219470143318f, -1.06830656528473f, -0.08239475637674f,
    -0.10975494980812f, 0.37839862704277f, -0.75265145301819f,
    -0.59421259164810f, -0.61496764421463f, -0.37234207987785f,
    -0.13026511669159f, -0.16774484515190f, -0.92836028337479f,
    -0.69352263212204f, -0.37379947304726f, -0.76606309413910f,
    -0.32315498590469f, -0.91869848966599f, -0.16108998656273f,
    -0.35657370090485f, -0.57358866930008f, 0.07690234482288f,
    0.07686954736710f, -1.17617344856262f, -0.00233305059373f,
    -0.32908812165260f, -0.11691716313362f, -0.09992995858192f,
    -0.41758999228477f, 0.47464174032211f, 0.11126589775085f,
    -0.53379243612289f, -0.23927950859070f, -1.36715817451477f,
    -1.22630155086517f, 0.31592902541161f, -0.84624004364014f,
    -0.13934481143951f, 0.00888514798135f, 0.06892616301775f,
    -0.72845059633255f, -0.09240195155144f, -0.29063054919243f,
    -0.32938963174820f},
    {-0.13998693227768f, 0.12984067201614f, -0.65698784589767f,
    0.75451952219009f, -0.30556106567383f, -0.42448335886002f,
    0.09756182134151f, 0.19853618741035f, -0.06249596178532f,
    0.03356987237930f, 0.23039776086807f, -1.14387702941895f,
    0.50264316797256f, 0.75631999969482f, 0.62101840972900f,
    -0.27671599388123f, -0.03875346481800f, -0.25122639536858f,
    -0.29704904556274f, -0.42189040780067f, -0.28959897160530f,
    -0.91869634389877f, 0.54851680994034f, 0.32781967520714f,
    0.17551670968533f, 0.47898605465889f, 0.29318994283676f,
    0.09060952067375f, -1.22993588447571f, 0.31367734074593f,
    0.07126276940107f, -0.59742921590805f, 0.51613950729370f,
    0.37080273032188f, 0.33389362692833f, -1.25728917121887f,
    -0.58262377977371f, -0.38959327340126f, -0.11074339598417f,
    -0.03677269443870f, 0.07700375467539f, -0.03293763473630f,
    -0.09415581822395f, 0.31130850315094f, 0.35350811481476f,
    0.07850842177868f, -0.15568031370640f, 0.44604441523552f,
    -0.16242712736130f, 0.12457248568535f, -0.01774490997195f,
    -0.17208011448383f, -0.02620472013950f, -0.21255721151829f,
    0.63416963815689f, 0.19661672413349f, 0.21474082767963f,
    -0.41590797901154f, -0.09526842832565f, -1.05991017818451f,
    0.44574269652367f, -1.05820393562317f, 0.16563035547733f,
    -0.29838734865189f},
    {-0.16124546527863f, -0.03131921589375f, 0.21472030878067f,
    -0.05492275953293f, 0.18652158975601f, -0.18278397619724f,
    0.07933339476585f, -0.14055486023426f, -0.20395699143410f,
    -0.09556682407856f, -0.07698504626751f, -0.07844965159893f,
    0.25156185030937f, 0.16124755144119f, -0.07100413739681f,
    0.23350420594215f, -0.24825869500637f, 0.03880867362022f,
    0.15983259677887f, -0.26845800876617f, -0.20639045536518f,
    0.04649770259857f, -0.05008924007416f, -0.25120913982391f,
    -0.05473317205906f, -0.21312260627747f, 0.24831894040108f,
    -0.14811941981316f, 0.22772458195686f, 0.02887731790543f,
    0.16490051150322f, -0.01251745223999f, 0.01857051253319f,
    -0.02454334497452f, -0.23232629895210f, -0.03917056322098f,
    0.19186657667160f, -0.06758309900761f, -0.09296788275242f,
    0.13889577984810f, -0.01096254587173f, -0.19719636440277f,
    -0.21114283800125f, 0.11543005704880f, 0.16610255837440f,
    0.24955293536186f, -0.22277468442917f, 0.09747803211212f,
    0.14718008041382f, 0.04027503728867f, -0.11218392848969f,
    -0.24097770452499f, -0.21310827136040f, -0.14147797226906f,
    -0.19303476810455f, 0.12845462560654f, 0.27796605229378f,
    0.15705358982086f, -0.10652488470078f, 0.14752781391144f,
    -0.08329288661480f, -0.07282042503357f, -0.22494281828403f,
    -0.12523186206818f},
    {-0.50365269184113f, -0.03590315207839f, -0.18448762595654f,
    0.19053480029106f, 0.59651446342468f, -0.27353256940842f,
    -0.30111977458000f, 0.46489134430885f, -0.19420856237411f,
    0.12522707879543f, 0.98825818300247f, -0.25371879339218f,
    -1.16587066650391f, -0.02819004654884f, -0.68700021505356f,
    -0.05315724015236f, -0.16904863715172f, -0.41064667701721f,
    0.39782691001892f, -0.43623292446136f, 0.21565571427345f,
    -0.77026557922363f, -0.06864061206579f, 0.74161875247955f,
    0.55309736728668f, -0.34972286224365f, 0.00186410115566f,
    -0.25310599803925f, 0.26385974884033f, -0.37427857518196f,
    -0.22536346316338f, -0.67098647356033f, 0.76404434442520f,
    -0.20231038331985f, -0.12990850210190f, 0.56963115930557f,
    0.64143323898315f, -0.97615963220596f, -0.11470113694668f,
    0.48942816257477f, -0.65870809555054f, -0.09669013321400f,
    -0.12190300226212f, -0.13728243112564f, -1.12506866455078f,
    0.20109255611897f, -0.14885878562927f, -0.21170347929001f,
    0.23473921418190f, -1.30511009693146f, -0.23730868101120f,
    -0.42681583762169f, -0.24412341415882f, -0.49233937263489f,
    0.45075181126595f, 0.48568022251129f, 0.12929213047028f,
    0.08779645711184f, -0.10794536769390f, 0.88417053222656f,
    -0.28268605470657f, 0.06544642150402f, 0.01184376981109f,
    -1.03391325473785f},
    {-0.53401184082031f, -0.17298187315464f, -0.67902272939682f,
    0.17621086537838f, -0.95185762643814f, 0.32528048753738f,
    -0.25717419385910f, -0.69101178646088f, -0.20872524380684f,
    0.32005730271339f, -0.19236403703690f, 0.29792064428329f,
    0.13104969263077f, 0.15887440741062f, -0.25421532988548f,
    -0.12620362639427f, 0.00673281773925f, -0.51886731386185f,
    -0.03123287484050f, 0.41249319911003f, 0.01472921017557f,
    -0.27869710326195f, 0.43822884559631f, -1.18305933475494f,
    0.43632906675339f, -1.42104721069336f, -0.01642611436546f,
    0.39908099174500f, 0.35340821743011f, -1.95743536949158f,
    -0.36838674545288f, -0.09629119932652f, -1.05256497859955f,
    -0.84547781944275f, 0.28314179182053f, 0.16143539547920f,
    -0.27983582019806f, 0.27102431654930f, -0.24455811083317f,
    -0.33426365256310f, 0.24866877496243f, -0.20613427460194f,
    -0.20772133767605f, -0.33110550045967f, -0.09571460634470f,
    -0.22466200590134f, -0.09166719019413f, 0.45910012722015f,
    -0.08031111955643f, -0.15305583178997f, 0.06669679284096f,
    -0.15743906795979f, 0.08972488343716f, -0.22217789292336f,
    -0.31646716594696f, -0.21730953454971f, 0.53822201490402f,
    0.09123708307743f, -0.25707903504372f, 0.21251749992371f,
    -0.37397208809853f, -0.44563901424408f, -0.84103333950043f,
    -0.34327292442322f},
    {0.15835982561111f, 0.12391439080238f, 0.01281750202179f,
    0.18465116620064f, -0.02795016765594f, 0.00822106003761f,
    0.07657298445702f, -0.23929552733898f, -0.01516193151474f,
    0.08250674605370f, 0.26095071434975f, -0.14768183231354f,
    -0.18507803976536f, -0.15742897987366f, 0.18089258670807f,
    -0.22930967807770f, -0.00788262486458f, -0.06579393148422f,
    0.25212821364403f, 0.17984995245934f, 0.02111726999283f,
    0.05219525098801f, 0.05987998843193f, -0.19756066799164f,
    -0.26250711083412f, -0.10593892633915f, -0.09029111266136f,
    -0.27263393998146f, -0.13408270478249f, 0.03667137026787f,
    -0.19972181320190f, -0.21519204974174f, 0.12066623568535f,
    -0.19498240947723f, -0.22342623770237f, 0.04163399338722f,
    0.27652099728584f, 0.01949939131737f, -0.27591276168823f,
    0.03863665461540f, 0.13426437973976f, -0.06827911734581f,
    -0.17068976163864f, 0.03443318605423f, 0.21990808844566f,
    -0.00429370999336f, -0.12789264321327f, -0.00765687227249f,
    -0.07203161716461f, -0.16479840874672f, 0.16610109806061f,
    0.02111753821373f, -0.21559861302376f, -0.04051652550697f,
    -0.23074594140053f, 0.13924956321716f, 0.24520942568779f,
    0.10587865114212f, -0.25488078594208f, 0.20467811822891f,
    -0.06929576396942f, 0.07251414656639f, -0.14804820716381f,
    -0.21571202576160f} },
    //w3[][] = 
    { {-0.62977689504623f, -0.14240846037865f, -0.16533851623535f,
    -0.23100152611732f, 0.45594549179077f, 0.67178511619568f,
    -0.29151675105095f, -0.16606928408146f, 0.12115901708603f,
    0.62591332197189f, -0.63224452733994f, -0.01137190219015f,
    0.66489046812057f, 0.19628855586052f, 0.30519369244576f,
    0.19942423701286f, -0.26999080181122f, -0.04442083463073f,
    -0.45079448819160f, 0.14203782379627f, 0.88417917490005f,
    0.52529817819595f, 0.29069867730141f, -0.05923280119896f,
    -0.02351380884647f, 0.04882215335965f, 0.75764673948288f,
    -0.13863322138786f, -0.10215151309967f, -0.14083203673363f,
    0.12825256586075f, -0.19616249203682f, -0.05120317265391f,
    0.09688999503851f, -0.08644119650126f, -1.43111431598663f,
    -0.31292891502380f, 0.22365760803223f, 0.02799264527857f,
    0.62914574146271f, 0.37544143199921f, -0.13866366446018f,
    -0.01547785289586f, 0.90232199430466f, -0.84819012880325f,
    -0.15925952792168f, -0.07989336550236f, -0.57928532361984f,
    0.58960282802582f, -0.63832062482834f, -0.17740584909916f,
    0.20613698661327f, 0.11831173300743f, -0.13628718256950f,
    0.24218063056469f, -0.61089515686035f, 0.51516109704971f,
    -0.25748059153557f, -0.00683434400707f, -0.64344179630280f,
    -0.32980224490166f, 1.12875628471375f, 0.25602212548256f,
    -0.62395226955414f},
    {-0.19639165699482f, 0.12614683806896f, 0.16074337065220f,
    0.27764883637428f, 0.69492226839066f, 0.34528753161430f,
    0.41732901334763f, -0.64153313636780f, -0.05078420415521f,
    0.10910356789827f, -0.45349428057671f, -0.41550457477570f,
    -0.27427947521210f, 0.37343543767929f, 0.02308067493141f,
    -0.16731247305870f, -0.03481968864799f, -0.07821567356586f,
    -0.32218265533447f, 0.05481705442071f, 0.04797276109457f,
    -0.13936555385590f, -0.10246313363314f, -0.14449152350426f,
    -0.22074714303017f, -0.20705384016037f, -0.73574048280716f,
    -0.07754594087601f, -0.17992147803307f, 0.14681671559811f,
    0.21579347550869f, 0.24441738426685f, 0.14262200891972f,
    -0.07689426839352f, 0.06540310382843f, -0.08790052682161f,
    -0.21254490315914f, 0.21900466084480f, 0.01294208783656f,
    -0.38914328813553f, -0.21630537509918f, -0.09550976753235f,
    -0.24214363098145f, 0.32117792963982f, -0.59587836265564f,
    -0.11109751462936f, -0.15004965662956f, -0.33470454812050f,
    -0.16966009140015f, -0.67480695247650f, -0.44937354326248f,
    -0.35718482732773f, -0.12796398997307f, -0.06472452729940f,
    -0.00588540080935f, -0.75039565563202f, -0.08300342410803f,
    -0.24133895337582f, -0.38634338974953f, 0.25285497307777f,
    0.38193207979202f, -0.00635571032763f, -0.18090139329433f,
    0.19888140261173f},
    {-0.06659356504679f, 0.00539356330410f, 0.22360768914223f,
    0.94783723354340f, 0.88011401891708f, 0.59306794404984f,
    -0.72887921333313f, -0.91103243827820f, 0.41175082325935f,
    -1.19086301326752f, -4.19178152084351f, 0.31587764620781f,
    -0.48368874192238f, -0.92430227994919f, -0.11936062574387f,
    -0.56514388322830f, -0.17873279750347f, 0.12195406854153f,
    -0.04211466386914f, -0.18495626747608f, -1.06993710994720f,
    -1.70327222347260f, 0.11142361164093f, -0.05733229219913f,
    -0.02155135571957f, -0.10036514699459f, 0.83262693881989f,
    0.29529702663422f, -0.36241787672043f, 0.10336071997881f,
    -0.50290197134018f, -0.39099240303040f, -0.09200764447451f,
    0.03822780773044f, 0.10697377473116f, -0.63459593057632f,
    -0.12842565774918f, -0.49346798658371f, 0.16433942317963f,
    0.15477064251900f, -0.11097699403763f, 0.06942033767700f,
    0.70369929075241f, -0.43954271078110f, 1.31675040721893f,
    -1.44191849231720f, -0.20476825535297f, -0.93326163291931f,
    -0.60469120740891f, -0.72209107875824f, -0.62630206346512f,
    -0.57845139503479f, -0.07485228776932f, 0.01353362109512f,
    0.23970104753971f, -1.86263048648834f, 0.41185325384140f,
    0.11028394848108f, -3.48154616355896f, 0.05269221961498f,
    0.14503000676632f, 0.33750629425049f, 0.94189208745956f,
    -0.21115677058697f},
    {-0.04463852941990f, -0.18551702797413f, 0.32095021009445f,
    -0.05467139184475f, -0.48058369755745f, -0.08397652208805f,
    -0.10953141748905f, -0.62813687324524f, 0.06286394596100f,
    -3.00430059432983f, -0.45996236801147f, 0.25370317697525f,
    0.10090794414282f, 0.27629786729813f, 0.17848114669323f,
    -0.51022613048553f, 0.12631554901600f, -0.47187578678131f,
    0.10459415614605f, -0.01886807940900f, -3.10400509834290f,
    1.33221912384033f, -0.64443325996399f, -0.00076372653712f,
    -0.13636589050293f, -0.21111220121384f, -0.12601925432682f,
    0.14806470274925f, -0.12869249284267f, 0.02265466377139f,
    -0.18218199908733f, -0.44192621111870f, 0.15028370916843f,
    0.31449735164642f, -0.17963325977325f, 0.43348455429077f,
    0.10284111648798f, -0.68088012933731f, -0.08465674519539f,
    0.60015857219696f, -0.68847709894180f, -0.18553805351257f,
    0.54064047336578f, 0.21750620007515f, 0.07183028012514f,
    0.57756388187408f, 0.11308509856462f, -0.40555521845818f,
    0.15900538861752f, 0.11226190626621f, -0.55095893144608f,
    -0.38905081152916f, -0.28951257467270f, -0.09149193763733f,
    -0.04764468967915f, 0.39614659547806f, 0.20894591510296f,
    0.24024221301079f, 0.41166400909424f, -1.09738123416901f,
    -0.38255980610847f, -0.03147009387612f, 0.05577590316534f,
    -0.53008943796158f},
    {-0.78933811187744f, -0.20974580943584f, -0.11556939780712f,
    -0.19662036001682f, 0.34879150986671f, -0.04469095915556f,
    0.31129080057144f, -0.30815932154655f, 0.10869198292494f,
    -0.35798677802086f, 0.49113604426384f, 0.62731146812439f,
    0.42529520392418f, -0.61831992864609f, -0.42171624302864f,
    -0.06518013775349f, 0.00516237318516f, 0.80233526229858f,
    -0.02334645204246f, 0.12493906170130f, -1.51178789138794f,
    0.35430157184601f, -2.22127294540405f, 0.23050116002560f,
    0.03914582356811f, -0.09328355640173f, -0.16265442967415f,
    -0.17160579562187f, 0.29681679606438f, -0.09251201897860f,
    -0.00623313104734f, -0.30586609244347f, -0.08674786239862f,
    -0.02686040289700f, 0.14355218410492f, 0.21821558475494f,
    -0.09475363790989f, 0.18713454902172f, -0.13430541753769f,
    -0.67221450805664f, 0.90693044662476f, -0.05547974258661f,
    -0.39196214079857f, 0.38250786066055f, 0.26855719089508f,
    -0.17299683392048f, 0.10735940933228f, -0.02573924697936f,
    -0.01233290042728f, 0.12826840579510f, 0.03720547631383f,
    -0.28675332665443f, -0.21871954202652f, 0.12732514739037f,
    0.23874269425869f, -0.30841809511185f, 0.43710592389107f,
    -0.07573591172695f, 0.17931725084782f, -0.22083444893360f,
    -0.31471213698387f, -2.15789294242859f, -1.79388010501862f,
    -0.88263851404190f},
    {0.22641523182392f, 0.15882281959057f, -0.08622677624226f,
    -0.24502611160278f, 0.47379210591316f, 0.60610800981522f,
    0.36823719739914f, -0.00937792845070f, 0.17345526814461f,
    -0.12146215885878f, 0.29062575101852f, 0.55162024497986f,
    -0.05198213085532f, 0.01947313360870f, -0.23925080895424f,
    0.08299110084772f, -0.24488182365894f, 0.10667465627193f,
    0.15630424022675f, -0.03099153004587f, 1.14518570899963f,
    0.70913690328598f, -0.17112298309803f, -0.33684903383255f,
    -0.15667657554150f, -0.15308035910130f, 0.56771600246429f,
    0.08720143139362f, -0.01045552082360f, -0.01039076503366f,
    0.66307860612869f, -0.02519295923412f, -0.07496502995491f,
    1.04606986045837f, -0.19199383258820f, -0.42335879802704f,
    0.48797604441643f, 0.35386779904366f, -0.13273485004902f,
    -0.31865969300270f, 0.69692361354828f, 0.11542418599129f,
    0.03995697572827f, 0.64407408237457f, 0.02730068005621f,
    0.17569632828236f, 0.13155169785023f, 0.07231568545103f,
    0.94534087181091f, -0.99496507644653f, -0.34231004118919f,
    -0.45992141962051f, -0.21454769372940f, -0.20405614376068f,
    -0.21033033728600f, -0.30222085118294f, -0.85962462425232f,
    -0.33046039938927f, 0.51489984989166f, -0.31534641981125f,
    0.36024186015129f, -0.31816554069519f, -0.74025261402130f,
    -0.07694951444864f},
    {0.20215938985348f, -0.01034183800220f, 0.14479303359985f,
    0.15704391896725f, 0.08253021538258f, -0.12287204712629f,
    -0.12673865258694f, 0.07602705061436f, 0.06982043385506f,
    0.21939443051815f, -0.18632106482983f, 0.02320217899978f,
    0.04891559854150f, 0.11692678928375f, -0.01675799489021f,
    -0.09064973890781f, -0.05709670484066f, 0.17592284083366f,
    -0.14366933703423f, -0.01635490357876f, 0.19618152081966f,
    0.13923066854477f, 0.02129547297955f, -0.13711695373058f,
    0.20159085094929f, -0.11434242129326f, -0.20573180913925f,
    -0.14988888800144f, -0.12454152107239f, -0.03960426151752f,
    -0.20002824068069f, -0.14280295372009f, 0.20817749202251f,
    -0.10363347828388f, -0.06137432157993f, -0.13221897184849f,
    0.07357409596443f, -0.08577489852905f, 0.04555328190327f,
    0.07331756502390f, -0.06883203238249f, -0.01730872690678f,
    -0.09558921307325f, -0.01810119114816f, 0.06676538288593f,
    0.16964815557003f, 0.06804372370243f, -0.18174725770950f,
    0.13199508190155f, 0.02334889210761f, 0.03907407820225f,
    0.20373417437077f, 0.15781186521053f, 0.14433191716671f,
    -0.04112723469734f, -0.15395589172840f, -0.18490883708000f,
    0.01188478339463f, -0.14768689870834f, -0.17273832857609f,
    0.05814100801945f, 0.17793859541416f, -0.10286490619183f,
    -0.21803231537342f},
    {0.12785407900810f, 0.19312401115894f, -0.77100259065628f,
    -0.38823601603508f, 1.19368708133698f, -2.90182900428772f,
    -0.10087874531746f, 0.39694422483444f, 0.02546182461083f,
    0.11486197263002f, 1.26638507843018f, 0.37829050421715f,
    -0.50350481271744f, -0.14590528607368f, -0.39812698960304f,
    0.08028169721365f, -0.14962850511074f, 0.07270611077547f,
    0.28306812047958f, -0.19669714570045f, -0.27845016121864f,
    0.84504896402359f, 0.36185383796692f, 0.24777187407017f,
    -0.15327604115009f, 0.15650495886803f, -0.78565979003906f,
    0.23285253345966f, 0.04533666372299f, 0.09279492497444f,
    0.88391888141632f, 0.65963786840439f, -0.00031629062141f,
    -1.32794153690338f, -0.18405044078827f, -0.26420685648918f,
    0.46363112330437f, 1.03038191795349f, -0.12209393084049f,
    0.55580729246140f, 0.19117002189159f, -0.02673622407019f,
    0.42847791314125f, -0.06779859960079f, -0.43652409315109f,
    0.72521311044693f, -0.18670232594013f, 0.17891032993793f,
    0.01425164099783f, 0.28151237964630f, 0.13219019770622f,
    -1.40996980667114f, 0.00630415277556f, -0.12172431498766f,
    0.49448117613792f, 0.67863392829895f, 0.41304633021355f,
    0.46834883093834f, 0.00410093460232f, -0.44257870316505f,
    -1.50391840934753f, 0.27818351984024f, -0.03397342190146f,
    -0.23761832714081f},
    {0.02936343848705f, -0.20662654936314f, 0.04043813049793f,
    0.19410462677479f, -0.18941801786423f, 0.09422217309475f,
    0.15978859364986f, -0.20614716410637f, -0.08990561962128f,
    0.17028377950191f, -0.08689983189106f, -0.13024353981018f,
    -0.19680930674076f, 0.13204763829708f, -0.02615723013878f,
    0.17558480799198f, -0.01544263958931f, -0.06957346200943f,
    -0.12313652038574f, -0.01143209636211f, 0.18140630424023f,
    -0.11940373480320f, 0.12383089959621f, -0.06032516062260f,
    0.11995150148869f, 0.12103144824505f, 0.02479581534863f,
    0.13309912383556f, 0.09367211163044f, -0.15072467923164f,
    0.09892146289349f, -0.18140543997288f, -0.20967578887939f,
    -0.02909728884697f, -0.21059006452560f, -0.17463584244251f,
    0.03917716443539f, -0.01872928440571f, 0.02136640250683f,
    0.09905071556568f, -0.00426942110062f, 0.12624816596508f,
    -0.19039779901505f, 0.07540915906429f, 0.09365983307362f,
    0.01483827829361f, -0.21128837764263f, 0.18499208986759f,
    -0.05309203267097f, 0.15779225528240f, -0.19159613549709f,
    -0.14352390170097f, -0.01449671387672f, 0.10530634224415f,
    0.08567459881306f, -0.13230103254318f, -0.00033310055733f,
    0.16554830968380f, 0.04782967269421f, 0.18420402705669f,
    -0.02890104055405f, 0.17122872173786f, -0.15516185760498f,
    0.20502878725529f},
    {-0.48654341697693f, 0.01623977907002f, -0.53961980342865f,
    -0.46621513366699f, -0.89153951406479f, -0.01541752833873f,
    0.12989301979542f, 0.36104696989059f, -0.20330949127674f,
    -0.13867723941803f, 0.10970994085073f, 0.41512027382851f,
    -0.09849386662245f, -1.39637601375580f, 0.39393681287766f,
    -0.43014970421791f, 0.00195949315093f, -0.40607139468193f,
    -0.02150654233992f, -0.01014496199787f, 0.02702876180410f,
    -0.23911584913731f, 0.11935202777386f, -0.40708595514297f,
    -0.14178001880646f, -0.04309666156769f, -0.73468554019928f,
    0.22233709692955f, -0.47943267226219f, -0.12318565696478f,
    0.38841524720192f, -0.19398175179958f, -0.02825967781246f,
    -0.25446340441704f, -0.05239158496261f, 0.33015507459641f,
    0.20639054477215f, -0.13633459806442f, -0.26229852437973f,
    -0.01686302758753f, -1.49557411670685f, -0.09004545211792f,
    0.02431465499103f, 0.35304540395737f, 0.01139267720282f,
    -0.08689109981060f, 0.15429565310478f, 0.20991390943527f,
    0.45508158206940f, 1.11112928390503f, -0.00594983482733f,
    -0.53133767843246f, 0.08854944258928f, -0.15148532390594f,
    -0.19824555516243f, 0.48523485660553f, -0.44760307669640f,
    0.05792609974742f, 0.74011957645416f, 0.07769408822060f,
    -0.15034843981266f, 1.14524281024933f, 0.41762125492096f,
    -0.22235687077045f},
    {-0.46758314967155f, 0.04027656465769f, -0.36148747801781f,
    -0.10904911160469f, -0.00486567988992f, -0.51568102836609f,
    0.10874875634909f, -0.03396878391504f, -0.32632327079773f,
    0.09446831047535f, 0.08952379226685f, 0.34827071428299f,
    0.25771719217300f, -0.61005234718323f, 0.05356503278017f,
    0.24549715220928f, -0.12519493699074f, 0.44587251543999f,
    0.02633585222065f, -0.09647227823734f, -0.01276620384306f,
    -0.95350790023804f, -0.28033256530762f, 0.09018672257662f,
    -0.14180713891983f, 0.10801551491022f, -0.86300772428513f,
    0.13262839615345f, 0.35059630870819f, -0.09183343499899f,
    0.69745641946793f, -0.14178217947483f, -0.20833773910999f,
    -1.01089692115784f, -0.03882371634245f, 0.44981572031975f,
    -0.79042857885361f, 0.55804783105850f, -0.20878332853317f,
    -3.03206157684326f, 0.30954974889755f, 0.02270271815360f,
    -1.32246327400208f, -0.38637390732765f, -1.56549012660980f,
    -0.44371518492699f, -0.19054234027863f, 0.97304797172546f,
    0.09425278753042f, 0.72609901428223f, -0.00476684095338f,
    -0.55225443840027f, 0.16087500751019f, -0.23249348998070f,
    0.46099939942360f, 0.16030064225197f, 0.23536509275436f,
    -0.04605088010430f, 0.55000782012939f, -0.29003849625587f,
    -0.78913795948029f, -1.03095531463623f, 0.25684747099876f,
    0.33011519908905f},
    {0.08125074952841f, -0.06971264630556f, -0.02835227921605f,
    0.50245040655136f, -0.06988201290369f, -0.07814690470695f,
    -1.52181208133698f, -0.40112775564194f, -0.05922393873334f,
    -3.83564090728760f, -0.61587327718735f, -0.07590241730213f,
    -0.59391486644745f, -0.02858192473650f, -0.11756770312786f,
    -0.67764556407928f, 0.01954803429544f, 0.79229921102524f,
    -0.17254969477654f, -0.04730780422688f, -0.02634103409946f,
    0.16162358224392f, -0.56663811206818f, 0.61576163768768f,
    -0.16237664222717f, 0.12389635294676f, -0.99285715818405f,
    -0.32003608345985f, -0.03569193556905f, 0.05615529045463f,
    -0.91148221492767f, 0.10223608464003f, -0.24331100285053f,
    0.28128868341446f, 0.12454671412706f, 0.11650140583515f,
    -1.16422641277313f, -0.93008726835251f, -0.11019302159548f,
    -0.89567720890045f, 0.29963013529778f, 0.06999886780977f,
    -0.17994441092014f, -0.34349760413170f, -0.20832434296608f,
    -0.27995038032532f, 0.05604092404246f, 0.16223816573620f,
    -1.24407780170441f, -0.51223659515381f, -0.20733088254929f,
    -0.32844159007072f, 0.05289877951145f, -0.07440622150898f,
    0.07085092365742f, -0.44567397236824f, -0.16034333407879f,
    -0.09997531771660f, -3.03886198997498f, -0.44656059145927f,
    0.56192278862000f, -0.12220729887486f, -0.29566526412964f,
    0.37550091743469f},
    {-0.57848221063614f, -0.01028548181057f, 0.61504012346268f,
    0.62932926416397f, 0.46506497263908f, 0.41123875975609f,
    -0.73280686140060f, -0.00034570111893f, 1.04158377647400f,
    -0.15972965955734f, -0.31925112009048f, -0.41638311743736f,
    -0.73761016130447f, -0.60202121734619f, 0.16203314065933f,
    0.37549704313278f, -0.09973452240229f, -0.35268411040306f,
    0.20735168457031f, -0.13982965052128f, -0.46985143423080f,
    -0.34792289137840f, -1.02410137653351f, -0.10646233707666f,
    0.09341172873974f, 0.03722058236599f, 0.00780318025500f,
    0.22106020152569f, 0.03574163466692f, -0.07789877057076f,
    0.14907935261726f, 0.14936947822571f, 0.13444359600544f,
    -0.24787339568138f, -0.19567157328129f, -1.03654551506042f,
    0.53061228990555f, -0.63015145063400f, 0.10391196608543f,
    0.38703393936157f, -0.20033000409603f, -0.27613845467567f,
    0.03827564790845f, -0.00632365047932f, -2.32730555534363f,
    -1.10285925865173f, -0.11504620313644f, -0.59432363510132f,
    -0.32830825448036f, -0.35153371095657f, -1.16080451011658f,
    -0.36810314655304f, 0.13073995709419f, -0.04687044024467f,
    -1.01876831054688f, 0.25240221619606f, -0.27801397442818f,
    0.64561396837234f, -0.52562969923019f, -0.00946782343090f,
    0.71846026182175f, 0.52389967441559f, 0.17418427765369f,
    0.67107993364334f},
    {-0.83513724803925f, 0.00303654978052f, 0.09865629673004f,
    0.17917987704277f, -0.58922266960144f, -0.00852755084634f,
    -0.03880654275417f, -0.41246867179871f, -0.53393828868866f,
    0.01294142007828f, 0.25883844494820f, 0.20257110893726f,
    0.25405824184418f, -0.11320605874062f, -1.06413769721985f,
    0.36456862092018f, 0.01550757884979f, 0.32462590932846f,
    0.30161198973656f, -0.16606906056404f, -3.21812748908997f,
    -3.15045046806335f, -0.75932788848877f, -0.19019305706024f,
    -0.14367227256298f, 0.08369182050228f, -0.08756557852030f,
    0.13281433284283f, -0.28703466057777f, -0.20039455592632f,
    -0.12145558744669f, -0.19019030034542f, -0.24256084859371f,
    -0.14350998401642f, -0.02928581647575f, 0.00724083324894f,
    -0.08558427542448f, -0.26550522446632f, 0.10352790355682f,
    -0.02686629258096f, -0.82777196168900f, -0.09042584151030f,
    0.53189009428024f, 0.11368961632252f, -0.23984350264072f,
    -2.02553224563599f, -0.26701307296753f, 0.03848376497626f,
    0.10037750750780f, 0.19753757119179f, -0.62126511335373f,
    -0.04478781297803f, 0.02432333678007f, -0.16072802245617f,
    -0.48701611161232f, 0.11563673615456f, 0.10505672544241f,
    0.07181896269321f, 0.20203699171543f, -0.20308537781239f,
    -0.19181825220585f, 0.49077481031418f, -2.47523689270020f,
    0.53596961498260f},
    {0.08935995399952f, -0.27398955821991f, 0.23601773381233f,
    0.16158501803875f, -0.10420685261488f, 0.04096302390099f,
    0.11001355946064f, -0.26995587348938f, 0.23346568644047f,
    -0.08904504030943f, -0.19538193941116f, 0.07462104409933f,
    -0.37230321764946f, 0.50707536935806f, 0.05631381645799f,
    0.14152932167053f, -0.04713176190853f, 0.27285274863243f,
    -0.45574218034744f, -0.02777100540698f, -2.42980885505676f,
    -0.62463182210922f, -0.64955043792725f, -0.15252290666103f,
    -0.16231539845467f, 0.04334266111255f, 0.37447610497475f,
    -0.25295013189316f, -0.24380627274513f, -0.09269461035728f,
    -0.22008241713047f, -0.20588022470474f, 0.03596208617091f,
    0.09113837033510f, -0.02276572398841f, -0.34713941812515f,
    0.12659791111946f, -0.77957779169083f, 0.08467205613852f,
    -0.16175344586372f, -0.07088717073202f, 0.10884485393763f,
    -0.01269243471324f, 0.32026764750481f, 0.42558315396309f,
    -0.97893881797791f, -0.21586222946644f, -0.94070464372635f,
    0.12243825197220f, -1.35894608497620f, -0.61408168077469f,
    0.40175485610962f, -0.25169399380684f, -0.09105207771063f,
    -0.32988524436951f, -0.42332640290260f, 0.23400191962719f,
    0.17968350648880f, -0.45623755455017f, -0.07758230715990f,
    0.45316955447197f, 0.16187678277493f, -2.41843199729919f,
    0.00614087283611f},
    {-0.19404928386211f, -0.01556399464607f, -0.13999950885773f,
    -0.13636386394501f, 0.12155713140965f, 0.04087693989277f,
    0.07240672409534f, -0.15329355001450f, -0.12013791501522f,
    -0.09315070509911f, 0.07842506468296f, 0.12786035239697f,
    0.21043427288532f, -0.14854788780212f, -0.06567135453224f,
    0.02644433081150f, -0.07711398601532f, -0.04871153831482f,
    -0.01116299629211f, -0.14042800664902f, -0.03248123824596f,
    -0.01694908738136f, -0.21645709872246f, 0.01073899865150f,
    0.02696247398853f, 0.18162553012371f, -0.13170219957829f,
    -0.15465542674065f, 0.02839672565460f, -0.06041462719440f,
    -0.01801756024361f, -0.11961836367846f, 0.18133823573589f,
    0.15350379049778f, 0.19915653765202f, -0.13454625010490f,
    -0.12064919620752f, 0.19950206577778f, -0.19015198945999f,
    0.21339754760265f, 0.09214816987514f, 0.11576612293720f,
    0.03892572224140f, -0.19157879054546f, 0.10931254923344f,
    -0.03753754496574f, -0.11618698388338f, 0.16571156680584f,
    0.17282871901989f, -0.13410347700119f, -0.18278263509274f,
    0.02991649508476f, -0.09147493541241f, -0.11947666853666f,
    0.07903136312962f, -0.02968099713326f, 0.17254377901554f,
    0.20625345408916f, -0.10138881206512f, -0.09639238566160f,
    0.09355773031712f, 0.15961699187756f, -0.17989987134933f,
    0.19012488424778f},
    {0.12966696918011f, 0.04161451756954f, -0.18446932733059f,
    0.07324706017971f, 0.20348872244358f, 0.05449368059635f,
    -0.16056305170059f, 0.11534907668829f, 0.14041121304035f,
    0.11878949403763f, 0.08413206785917f, 0.18013249337673f,
    0.18315157294273f, -0.11565671116114f, -0.02926535904408f,
    -0.19390480220318f, 0.15380211174488f, 0.02680806256831f,
    -0.14381131529808f, -0.08551731705666f, -0.17530694603920f,
    0.16122984886169f, 0.04886607825756f, -0.03372378274798f,
    0.05294878780842f, -0.18666930496693f, 0.12254451215267f,
    0.05320923402905f, -0.10594624280930f, 0.20634780824184f,
    -0.06604826450348f, -0.12401245534420f, 0.11520116031170f,
    0.12260355800390f, -0.10609631985426f, 0.01470250263810f,
    -0.18538019061089f, 0.11171717941761f, -0.05408740043640f,
    0.13137422502041f, 0.12806478142738f, 0.18030560016632f,
    -0.05170526355505f, -0.02216453850269f, -0.13978290557861f,
    0.20888535678387f, -0.00656363368034f, -0.07120909541845f,
    0.09394865483046f, 0.14355014264584f, -0.03617355227470f,
    0.12027131021023f, -0.01191163063049f, 0.07639323174953f,
    0.02374692261219f, -0.10949201136827f, 0.14349542558193f,
    -0.11484882235527f, -0.05325276404619f, -0.13432145118713f,
    0.07423736155033f, -0.01065522432327f, 0.16731463372707f,
    0.10293395072222f},
    {-0.06230267137289f, -0.03258525580168f, -0.35148835182190f,
    -0.03998411074281f, 0.14402174949646f, -1.41404271125793f,
    0.19668027758598f, -0.56624394655228f, -0.03252906352282f,
    -0.71710181236267f, -0.31557711958885f, -0.12907356023788f,
    0.61122697591782f, 0.16311065852642f, -1.58057355880737f,
    -0.17873892188072f, -0.03311909735203f, 0.28621464967728f,
    0.29961705207825f, 0.01086585968733f, -0.71886229515076f,
    -1.22629666328430f, -1.14961910247803f, -0.30531135201454f,
    -0.21341766417027f, -0.18107977509499f, 0.58336848020554f,
    -1.79163587093353f, -0.43528100848198f, -0.28455972671509f,
    -0.96359777450562f, 0.18294222652912f, -0.05504962429404f,
    0.05895679444075f, 0.15916688740253f, 0.27698421478271f,
    -0.39739081263542f, -1.12727665901184f, -0.19555102288723f,
    0.01892671920359f, 0.03244546428323f, -0.15467905998230f,
    0.47537466883659f, -0.38154625892639f, 0.01756735704839f,
    -1.69329655170441f, 0.03884835541248f, 0.47809338569641f,
    0.39698103070259f, -0.74703931808472f, 0.10620295256376f,
    -0.32700535655022f, 0.04735857620835f, 0.14986634254456f,
    0.05249769613147f, 0.35593754053116f, 0.16067609190941f,
    -0.75309962034225f, -0.26256036758423f, -2.23933029174805f,
    -0.06431794166565f, -0.88313972949982f, -1.38461065292358f,
    0.06619293987751f},
    {0.42944633960724f, -0.06857571750879f, 0.20610271394253f,
    0.15225751698017f, -0.86413800716400f, 0.02031137049198f,
    0.24321240186691f, 0.15417268872261f, 0.51370787620544f,
    0.48186063766479f, -0.55106174945831f, -0.98575764894485f,
    -0.11522648483515f, 0.24899348616600f, -0.13133983314037f,
    0.40223327279091f, 0.03840098157525f, -0.10569489747286f,
    0.05178364366293f, -0.21118527650833f, -2.68184614181519f,
    0.02713174559176f, -0.72950774431229f, -0.03561756759882f,
    -0.00664283242077f, -0.08958270400763f, -1.41139066219330f,
    -0.11218388378620f, -0.46251276135445f, -0.18999436497688f,
    -0.37068298459053f, 0.15576750040054f, -0.02134422585368f,
    0.21183085441589f, 0.03978300467134f, 0.61905145645142f,
    0.04933646321297f, -0.06684951484203f, -0.17071478068829f,
    0.06692737340927f, -0.42005521059036f, 0.12480712682009f,
    0.71857362985611f, 0.73130172491074f, -2.60070490837097f,
    -2.90388059616089f, 0.16762973368168f, -0.30089429020882f,
    -0.22866703569889f, -0.11149132251740f, -0.30896824598312f,
    -3.49459671974182f, -0.04326537251472f, 0.01372014638036f,
    -0.38285058736801f, 0.17310674488544f, -0.18372502923012f,
    -0.13193938136101f, -0.33846846222878f, -0.12431423366070f,
    -0.22345378994942f, 0.08080899715424f, -1.41165637969971f,
    0.77841812372208f},
    {0.62359952926636f, -0.09266357868910f, -0.05103218927979f,
    0.35073646903038f, -1.69502115249634f, -0.33593103289604f,
    0.22607909142971f, 0.88814961910248f, -0.52504563331604f,
    0.86664682626724f, 0.53016835451126f, 0.94717729091644f,
    -0.72904449701309f, -0.40190362930298f, 0.02610784955323f,
    0.42083203792572f, -0.04250814020634f, -0.10146000236273f,
    0.06185848638415f, 0.07232899963856f, -0.22194495797157f,
    -0.31716603040695f, 0.13705205917358f, -0.21971552073956f,
    -0.13984538614750f, -0.09540770202875f, -0.64885705709457f,
    0.50790160894394f, 0.05423287302256f, -0.04721405357122f,
    0.13014440238476f, 0.05552902072668f, -0.21556781232357f,
    -0.16999031603336f, 0.04949579387903f, -0.17798735201359f,
    -0.24932923913002f, 0.14542084932327f, 0.01574370265007f,
    -0.68297612667084f, -0.23875795304775f, 0.02814825437963f,
    0.08396573364735f, -0.77962982654572f, -1.76901626586914f,
    0.52106630802155f, -0.18108321726322f, 0.69542181491852f,
    -2.74024987220764f, 0.74921989440918f, 0.45789220929146f,
    -1.19779050350189f, 0.01681604981422f, -0.02986371703446f,
    0.23610831797123f, -0.25722271203995f, 0.39667314291000f,
    0.27358728647232f, 0.84311836957932f, 0.21912847459316f,
    0.02088315412402f, 0.12333371490240f, 0.10480254888535f,
    -0.11179903149605f},
    {0.01897498406470f, -0.00215519964695f, 0.04494450986385f,
    -0.00734101235867f, -0.09621166437864f, 0.00617556273937f,
    0.19363376498222f, -0.14069403707981f, 0.00194150209427f,
    -0.15788362920284f, -0.01966780982912f, 0.01697334647179f,
    0.10551901161671f, 0.08543225377798f, -0.13936671614647f,
    -0.07391570508480f, -0.17625266313553f, -0.23588068783283f,
    -0.17417123913765f, 0.07751624286175f, 0.19891799986362f,
    -0.06442403793335f, 0.19110958278179f, -0.03301912173629f,
    0.05750103294849f, 0.05285732448101f, 0.11870218813419f,
    -0.05294146016240f, 0.17232161760330f, -0.07357600331306f,
    -0.09902238100767f, -0.00464556505904f, -0.20632581412792f,
    -0.14928311109543f, -0.18669448792934f, 0.00794575829059f,
    -0.02420397475362f, -0.10725005716085f, -0.16356730461121f,
    0.00743736280128f, -0.11232166737318f, -0.14341607689857f,
    -0.04984137415886f, -0.22846879065037f, 0.00911924242973f,
    -0.21193552017212f, 0.01945318281651f, -0.18880952894688f,
    -0.14330093562603f, -0.10117130726576f, 0.07340605556965f,
    -0.21512031555176f, -0.19511522352695f, -0.01685783267021f,
    0.08998475968838f, 0.12661066651344f, 0.18949340283871f,
    -0.19144253432751f, -0.07504147291183f, 0.05601730197668f,
    0.16485969722271f, -0.14626845717430f, 0.16709621250629f,
    -0.09901451319456f},
    {-0.01730132475495f, 0.08232543617487f, -0.00091746175895f,
    -0.19089195132256f, 0.23878000676632f, -0.31302049756050f,
    -0.17325796186924f, 0.04439360275865f, -0.01828566379845f,
    -1.74933564662933f, 0.23552981019020f, -0.52612382173538f,
    -0.26408794522285f, 0.80487602949142f, -0.38441413640976f,
    0.03266541659832f, -0.08838525414467f, -0.24198825657368f,
    0.33701896667480f, 0.10449506342411f, 0.08242798596621f,
    -1.08743715286255f, -0.00453456025571f, 0.42568415403366f,
    -0.17026805877686f, -0.22359275817871f, 0.29807552695274f,
    -0.11513507366180f, 0.02477849274874f, -0.04108087718487f,
    0.09532276540995f, -0.58882683515549f, -0.13768370449543f,
    -0.13635671138763f, 0.07129158824682f, 0.05578437075019f,
    -0.02883634343743f, 0.11863394826651f, -0.28568965196609f,
    -0.26998052000999f, 0.12287405133247f, 0.05860200896859f,
    0.23560930788517f, -0.81410676240921f, 0.58098977804184f,
    -0.23155686259270f, -0.10767673701048f, -0.19648024439812f,
    0.16712883114815f, 0.24955108761787f, -0.74377340078354f,
    0.01468404754996f, 0.02153545059264f, 0.04641072452068f,
    -0.21427737176418f, 0.03025225363672f, 0.37420123815536f,
    0.05273243039846f, -1.32856512069702f, 0.20002402365208f,
    -0.84004443883896f, -0.70429438352585f, 0.02756969630718f,
    0.22933851182461f},
    {0.07893866300583f, 0.08822315931320f, -0.10835198312998f,
    0.19095069169998f, -1.12324237823486f, -0.11364447325468f,
    0.01520380564034f, 0.15604802966118f, -0.43099766969681f,
    0.08045843243599f, -1.05272972583771f, -0.13317097723484f,
    -0.16279828548431f, 0.34052056074142f, -0.12330914288759f,
    0.55326014757156f, 0.02396462485194f, -0.80351966619492f,
    -0.09532531350851f, -0.14231972396374f, -0.24642157554626f,
    0.23687146604061f, 0.25747749209404f, 0.09454959630966f,
    -0.20389553904533f, -0.09566827863455f, 0.82052278518677f,
    0.05225354433060f, 0.23896269500256f, 0.09067629277706f,
    0.25251558423042f, 0.03500126674771f, -0.07507718354464f,
    -0.32327201962471f, -0.23607383668423f, 0.34906592965126f,
    0.95860260725021f, -0.52685010433197f, -0.15233230590820f,
    0.21465821564198f, 0.39834201335907f, -0.07321333140135f,
    -0.52637630701065f, 0.22242127358913f, -3.61451959609985f,
    0.18768952786922f, 0.01465242914855f, -0.32847478985786f,
    -0.91861128807068f, -0.40185123682022f, -0.14482036232948f,
    -3.66694784164429f, 0.05415334179997f, -0.19300971925259f,
    -0.95069926977158f, -0.44952222704887f, 0.06929811835289f,
    0.61462903022766f, -0.87109363079071f, 0.00902435276657f,
    -3.02887868881226f, -0.07233793288469f, 0.11001561582088f,
    0.43263366818428f},
    {0.38017320632935f, 0.05453221499920f, -0.24816481769085f,
    -2.66891264915466f, 0.00257966900244f, -2.58978629112244f,
    -0.16407252848148f, 0.36130228638649f, -1.29415285587311f,
    -0.18748463690281f, 0.89706307649612f, 0.05473394319415f,
    -0.14991274476051f, -1.17968308925629f, 0.91045534610748f,
    0.25741624832153f, 0.11377395689487f, 0.06124092265964f,
    -0.13948455452919f, -0.17490766942501f, 0.24819910526276f,
    0.20493724942207f, 0.57655698060989f, -0.07045669853687f,
    0.01381230354309f, 0.12751393020153f, -0.38700872659683f,
    -0.00868506077677f, -0.13849096000195f, -0.19835209846497f,
    0.12320876121521f, -0.24766895174980f, 0.12705595791340f,
    0.34881868958473f, 0.08589319884777f, -0.23861761391163f,
    0.55892795324326f, -0.50363755226135f, -0.02029742300510f,
    1.80611538887024f, -1.76280522346497f, -0.09532521665096f,
    1.21629703044891f, -0.67204147577286f, 0.56805759668350f,
    -0.65000253915787f, -0.12295895069838f, 0.23813632130623f,
    -0.02238166145980f, -0.63663017749786f, -0.13124488294125f,
    0.23213937878609f, -0.12320155650377f, -0.08129915595055f,
    -0.13652914762497f, 1.29587256908417f, 0.13790763914585f,
    -0.32303330302238f, 0.28267407417297f, -0.99130141735077f,
    -0.40784919261932f, -0.43376985192299f, -0.70132684707642f,
    -0.05818907916546f},
    {-0.01211772114038f, -0.14981447160244f, -0.19541484117508f,
    -0.78949570655823f, -1.28542625904083f, -0.51559126377106f,
    0.02608141675591f, 0.25627198815346f, -0.23563669621944f,
    -2.69409656524658f, 0.36007604002953f, -0.02779651619494f,
    -0.22932243347168f, 0.28444015979767f, -0.25081723928452f,
    0.23527266085148f, -0.10951814800501f, 0.20174323022366f,
    -0.10668593645096f, -0.19019244611263f, 0.09348474442959f,
    -0.63582360744476f, 0.57185143232346f, -0.22621023654938f,
    -0.04475460946560f, -0.15941834449768f, -1.12298274040222f,
    0.20268352329731f, 0.10101396590471f, -0.25482597947121f,
    -0.42917442321777f, -0.03638470917940f, 0.11922253668308f,
    -0.22103726863861f, -0.07461981475353f, -0.40932098031044f,
    -0.02167520113289f, -0.38308718800545f, -0.20191323757172f,
    0.11256704479456f, -0.56805390119553f, -0.17928914725780f,
    0.21679052710533f, -0.25292995572090f, 0.10417538881302f,
    0.38367724418640f, -0.25188449025154f, -0.38624301552773f,
    0.27241060137749f, 0.12332245707512f, -0.24407628178596f,
    -0.08731285482645f, -0.22258871793747f, -0.14768448472023f,
    -0.16114515066147f, 0.16028065979481f, -0.50135469436646f,
    0.02512974105775f, 0.28578054904938f, -0.24704249203205f,
    -1.65329909324646f, -0.81207931041718f, 0.31581288576126f,
    0.20128317177296f},
    {0.78123772144318f, -0.07530638575554f, 0.33026242256165f,
    0.47156748175621f, 0.00273509952240f, 0.83145910501480f,
    0.45621943473816f, 0.47230395674706f, -0.58779740333557f,
    0.09379512071609f, -0.41767409443855f, 0.47361478209496f,
    0.37645152211189f, 0.99862378835678f, -1.37303423881531f,
    -0.36776289343834f, 0.13200609385967f, 0.23834124207497f,
    -0.41482856869698f, -0.24385078251362f, 0.12098591029644f,
    -0.64051401615143f, 0.11200598627329f, -0.22318039834499f,
    -0.01779265701771f, -0.04336540400982f, 0.51863813400269f,
    0.38474932312965f, 0.26197013258934f, 0.10447676479816f,
    0.10331194847822f, 0.42081913352013f, -0.22332565486431f,
    -0.30290347337723f, -0.24762395024300f, -0.24457539618015f,
    0.36313694715500f, 0.29712039232254f, -0.04186782240868f,
    -2.76398348808289f, 1.05888390541077f, 0.03611917048693f,
    -0.28291633725166f, 0.00445631938055f, 0.17119558155537f,
    0.16386575996876f, 0.07414190471172f, -0.03337389975786f,
    -0.57256472110748f, -0.24587731063366f, -0.02609880268574f,
    -3.29640865325928f, 0.07530963420868f, -0.03906242549419f,
    0.49310243129730f, -0.58409410715103f, -0.25602990388870f,
    -0.02826024964452f, 0.13674910366535f, -0.05191553384066f,
    0.13545647263527f, -1.00472652912140f, -0.57875198125839f,
    -0.21508640050888f},
    {-0.00263285078108f, -0.24058246612549f, 0.10956680774689f,
    0.17754021286964f, 0.20588997006416f, 0.42546087503433f,
    0.83852601051331f, -0.56311440467834f, 0.06221731007099f,
    0.42303529381752f, 0.14189887046814f, -0.66832387447357f,
    -0.05022362247109f, -0.44771522283554f, 0.32289358973503f,
    -0.05595255270600f, -0.05720492079854f, -0.09705179929733f,
    -0.51427507400513f, -0.06041797623038f, 0.25686454772949f,
    0.36184182763100f, -0.16367432475090f, -0.04640737921000f,
    0.06237751618028f, 0.09304010123014f, 0.10929840803146f,
    0.19685341417789f, -0.04327129945159f, -0.07556205987930f,
    -0.38281914591789f, 0.09089849144220f, -0.09782368689775f,
    -0.06926367431879f, -0.15964242815971f, -0.07196904718876f,
    -0.05938429385424f, 0.16141307353973f, 0.00696017779410f,
    -0.98616623878479f, -0.68032753467560f, -0.15630765259266f,
    -0.39335516095161f, 0.10014848411083f, 1.56469416618347f,
    0.68644595146179f, -0.04773838073015f, -0.09658433496952f,
    -0.51823484897614f, -0.14660257101059f, 0.20282952487469f,
    -0.10203845798969f, -0.03031705692410f, -0.01621132530272f,
    0.53364646434784f, -0.55167651176453f, -0.13011847436428f,
    -0.22871039807796f, 0.35842514038086f, 0.24254989624023f,
    -0.64885294437408f, 0.43820625543594f, 0.25619578361511f,
    -0.50559264421463f},
    {0.01433381624520f, -0.15811417996883f, 0.34440615773201f,
    0.56038314104080f, 0.17145784199238f, 0.47071513533592f,
    0.16961099207401f, -0.56041252613068f, -0.00432419776917f,
    -0.95533072948456f, 0.08485405147076f, -1.56198227405548f,
    -0.33612254261971f, -0.67622339725494f, 0.08858717232943f,
    -0.64380222558975f, -0.00305966520682f, -0.13255839049816f,
    -0.36373466253281f, -0.07237483561039f, 0.24740825593472f,
    0.29979598522186f, -0.49509239196777f, -0.04459274932742f,
    -0.01894246414304f, -0.17197798192501f, -0.49989083409309f,
    0.31101471185684f, -0.05543725937605f, 0.07240527868271f,
    -0.62287944555283f, -0.08609645068645f, -0.22223879396915f,
    0.14568379521370f, 0.09784899652004f, -0.24365587532520f,
    -0.67764633893967f, -0.13196426630020f, -0.03127631545067f,
    -0.24043467640877f, -0.45992124080658f, 0.07497194409370f,
    0.18875098228455f, -0.18799711763859f, 0.95885401964188f,
    0.23557636141777f, -0.14947582781315f, -1.17885005474091f,
    0.13322934508324f, -0.54638922214508f, 0.05205291137099f,
    0.17646872997284f, 0.09275245666504f, 0.09330771118402f,
    -0.59387135505676f, -0.15559858083725f, -0.03713281825185f,
    -0.16435927152634f, -1.01541340351105f, -0.79644262790680f,
    -0.71077436208725f, -0.00869243219495f, 0.33717501163483f,
    -0.31808137893677f},
    {-0.91564744710922f, -0.10565589368343f, 0.86373853683472f,
    0.63291037082672f, 0.28827336430550f, 0.82798463106155f,
    0.19930794835091f, -0.54931348562241f, 0.88038861751556f,
    -0.13447827100754f, -1.17871713638306f, -1.65226960182190f,
    -0.06958803534508f, -1.10024762153625f, 0.10802330076694f,
    -1.26196408271790f, 0.03138663619757f, -0.52484023571014f,
    -0.65332776308060f, -0.20061011612415f, 0.35644564032555f,
    1.01808083057404f, 0.30490294098854f, 0.19740143418312f,
    0.17164817452431f, 0.06782331317663f, 0.26774773001671f,
    0.01742727309465f, -0.83808088302612f, 0.01787528581917f,
    -1.88776767253876f, 0.18594564497471f, 0.10370495170355f,
    -0.07025227695704f, -0.18110996484756f, 0.78431487083435f,
    -1.08729541301727f, -1.58208751678467f, -0.17745210230350f,
    -0.67754960060120f, 0.29870691895485f, -0.23009231686592f,
    -1.24512708187103f, -0.62611502408981f, -0.05973450466990f,
    0.48884657025337f, 0.06045818328857f, -1.80144989490509f,
    -1.03942739963531f, 0.63952136039734f, -0.49323621392250f,
    -0.19118754565716f, -0.21754305064678f, 0.13260409235954f,
    -1.16902506351471f, 0.01668501459062f, -0.63899123668671f,
    -0.10563738644123f, -0.52973246574402f, -0.05698852613568f,
    -0.92641144990921f, 0.55201971530914f, 0.37232631444931f,
    0.44724160432816f},
    {-0.23343032598495f, -0.11550771445036f, -0.45649769902229f,
    0.09313169121742f, 0.20044633746147f, -0.02443933114409f,
    -0.41556632518768f, 0.04977715760469f, 0.02842008508742f,
    -1.99874687194824f, -0.48084402084351f, 0.37286788225174f,
    0.12645454704762f, -0.32079657912254f, 0.52754056453705f,
    0.49599841237068f, 0.02800172567368f, 0.87014687061310f,
    -0.33332023024559f, 0.15350449085236f, -0.24255335330963f,
    -2.77714657783508f, -0.10892813652754f, -0.19653350114822f,
    0.18299911916256f, -0.18402370810509f, 0.76427865028381f,
    -0.37466117739677f, 0.44515612721443f, 0.06391768157482f,
    0.28651845455170f, -0.03617990389466f, -0.21386291086674f,
    -1.78227686882019f, 0.01515558362007f, -0.71116197109222f,
    -0.78559374809265f, 0.55129826068878f, -0.06889630109072f,
    -1.28080379962921f, 0.52313828468323f, 0.15306273102760f,
    -0.20954999327660f, 0.01276069600135f, -1.74642395973206f,
    -0.15133793652058f, -0.24242253601551f, -2.66824269294739f,
    -0.56594496965408f, 0.44743239879608f, -0.03188142925501f,
    0.14367927610874f, 0.09415891766548f, -0.22123439610004f,
    0.91558372974396f, -0.96833437681198f, -0.13751050829887f,
    0.61870211362839f, 0.76374012231827f, 0.45379820466042f,
    -0.02862380631268f, 0.09998088330030f, 0.22596600651741f,
    -1.44230353832245f},
    {0.21448948979378f, -0.05698416754603f, 0.12218122184277f,
    0.26530334353447f, 0.85857570171356f, 0.48665687441826f,
    0.24313001334667f, -0.12984964251518f, 0.29740768671036f,
    -1.96576416492462f, 0.22641478478909f, -0.00986244995147f,
    -0.05231570079923f, -0.33259636163712f, -0.16286587715149f,
    -0.03007327765226f, -0.20987999439240f, 0.05345367640257f,
    -0.02075899392366f, -0.01441833656281f, -2.61932849884033f,
    0.58114433288574f, -1.76804018020630f, -0.09095263481140f,
    -0.14602699875832f, 0.01417675148696f, 0.38463088870049f,
    0.18719795346260f, -0.52830314636230f, -0.19155673682690f,
    -0.28258728981018f, -0.62197285890579f, -0.14523191750050f,
    -0.08071009069681f, -0.04330761730671f, 0.30336540937424f,
    -0.22404544055462f, -0.58551234006882f, 0.10215435922146f,
    -0.07280661910772f, 0.16472214460373f, -0.26477625966072f,
    0.18093240261078f, 0.01894666440785f, -0.06177689880133f,
    -1.55819809436798f, -0.22782596945763f, -2.61171412467957f,
    -0.06053587421775f, -0.52912849187851f, -1.69495403766632f,
    0.22225522994995f, -0.01015423890203f, -0.14557541906834f,
    -0.41915452480316f, 0.01375287864357f, -0.34997397661209f,
    0.17548587918282f, -0.39657661318779f, -0.12180744856596f,
    0.14162398874760f, 0.23048855364323f, -1.30890297889709f,
    0.49334126710892f},
    {0.54265934228897f, -0.25565874576569f, -0.36038890480995f,
    0.10501433163881f, -0.10220902413130f, -0.47322505712509f,
    0.17432670295238f, 0.30133637785912f, -0.23443408310413f,
    0.44760340452194f, -0.43697458505630f, -1.26478815078735f,
    0.17643640935421f, -0.06008999049664f, -0.48960587382317f,
    -0.29383981227875f, 0.01798278279603f, -0.46365928649902f,
    -0.23477971553802f, -0.10762166976929f, -0.10333513468504f,
    0.13254475593567f, 0.20413257181644f, 0.04122261330485f,
    -0.12485205382109f, -0.14986407756805f, 0.57910490036011f,
    -0.16510708630085f, 0.22491768002510f, -0.05335839092731f,
    0.15292373299599f, -0.04765785858035f, -0.16126006841660f,
    -0.37997582554817f, -0.13701368868351f, 0.58889526128769f,
    0.08734622597694f, -0.25167220830917f, -0.19010941684246f,
    -0.04311372339725f, 0.06888110190630f, -0.01599862240255f,
    -0.17234911024570f, -0.01219680625945f, 0.42806088924408f,
    -0.53815275430679f, -0.14574036002159f, -0.13827739655972f,
    -0.06154472753406f, 0.40362930297852f, 0.31908574700356f,
    0.45963770151138f, 0.04694872349501f, 0.07716785371304f,
    0.15451332926750f, 0.40792670845985f, -0.60303139686584f,
    -0.38289186358452f, 0.36681482195854f, 0.16259826719761f,
    0.59718400239944f, -1.56006622314453f, 0.44327297806740f,
    -0.61021548509598f},
    {-0.06634255498648f, 0.07248632609844f, -0.37948289513588f,
    0.04296169057488f, -0.53866833448410f, 0.49617812037468f,
    -0.00354268564843f, -0.20068040490150f, -1.27804398536682f,
    -1.31739783287048f, -0.55530762672424f, -0.19666267931461f,
    -0.74470692873001f, 0.09483028203249f, 0.96928602457047f,
    0.83890682458878f, -0.22694671154022f, 0.47943609952927f,
    -0.56450116634369f, -0.16340953111649f, 0.20853155851364f,
    -0.79980170726776f, -0.25144055485725f, 0.43499800562859f,
    0.10023865848780f, -0.05210253968835f, 0.38690549135208f,
    -0.44884565472603f, 0.01828703097999f, -0.17458097636700f,
    -0.78577631711960f, -0.02166043035686f, 0.15840065479279f,
    0.29229193925858f, -0.05446657165885f, -0.11363357305527f,
    0.20988476276398f, 0.74734729528427f, 0.16591106355190f,
    -0.91967672109604f, 0.63668882846832f, -0.02749563008547f,
    -0.43708303570747f, 0.42613518238068f, -2.14856219291687f,
    -0.39676490426064f, 0.04841439798474f, -1.41773176193237f,
    0.00047861036728f, 0.60483801364899f, -0.44294121861458f,
    -2.73438382148743f, -0.14721414446831f, 0.09727236628532f,
    0.57366079092026f, -1.03113305568695f, -0.27074572443962f,
    -0.05099587514997f, -0.32487595081329f, -0.68228703737259f,
    -1.81737196445465f, -0.59165126085281f, -0.31101006269455f,
    -0.11358998715878f},
    {-0.08771332353354f, -0.06030550971627f, -0.03807581961155f,
    -0.73291170597076f, -1.07083332538605f, -0.31417444348335f,
    -0.50757986307144f, 0.44029763340950f, 0.13958501815796f,
    0.24864149093628f, 0.08765830844641f, 0.48284849524498f,
    0.55028969049454f, 0.47093486785889f, -1.00547695159912f,
    0.15119330585003f, -0.12128731608391f, 0.22607168555260f,
    -0.08097340166569f, 0.02680816315114f, 0.31298279762268f,
    0.58456176519394f, 0.15256565809250f, 0.29935529828072f,
    -0.03898165374994f, -0.06429377198219f, 0.23524220287800f,
    -0.49225378036499f, 0.49944171309471f, -0.01046979334205f,
    0.38705334067345f, -0.29521912336349f, -0.05157198011875f,
    -0.33306193351746f, -0.20351012051105f, 0.12546776235104f,
    0.39226970076561f, 0.03837874904275f, 0.08973032981157f,
    -0.44790858030319f, -0.55745762586594f, 0.06907755136490f,
    -1.06896400451660f, -0.39245635271072f, -0.19681361317635f,
    -0.40559193491936f, 0.02828446775675f, -0.37690013647079f,
    -0.30399173498154f, -0.13606424629688f, 0.61377537250519f,
    0.44184693694115f, -0.20234547555447f, -0.17244374752045f,
    0.40599626302719f, 0.20335422456264f, -0.05721041560173f,
    -0.03095524385571f, 0.07845164090395f, 0.00606038002297f,
    -0.07999203354120f, -0.68029415607452f, 0.07456801086664f,
    0.46305218338966f},
    {0.35029384493828f, -0.06084666773677f, 0.18888510763645f,
    0.31275051832199f, 0.23685996234417f, 0.15684135258198f,
    -0.57604289054871f, -0.02520742639899f, -0.12131676822901f,
    0.34343826770782f, -0.57770496606827f, -0.33782029151917f,
    0.02894574590027f, 0.15130600333214f, -0.09131158143282f,
    -0.41293627023697f, -0.16383314132690f, -0.72697991132736f,
    0.25675284862518f, 0.11541187763214f, -2.55239772796631f,
    -0.05563429370522f, -1.35318684577942f, 0.05345262214541f,
    0.14109720289707f, -0.07238517701626f, -0.04943239688873f,
    0.04919299110770f, -0.20961613953114f, -0.15948496758938f,
    0.17113976180553f, 0.36257842183113f, -0.18686117231846f,
    -0.32244405150414f, 0.05804732069373f, 0.14691036939621f,
    0.10399474948645f, 0.04816588759422f, -0.15669648349285f,
    -0.28635239601135f, -0.11790665984154f, -0.04893738031387f,
    -0.06604056805372f, -0.47478860616684f, -2.26889276504517f,
    -3.01649212837219f, -0.24354909360409f, 0.05199085921049f,
    0.53062027692795f, 0.07425346225500f, 0.43345165252686f,
    0.43385607004166f, -0.03168008849025f, -0.22946353256702f,
    -0.41961100697517f, -0.13598717749119f, -0.18494917452335f,
    -0.42790770530701f, 0.40119335055351f, 0.31363275647163f,
    0.66612106561661f, 0.30286225676537f, -1.04301619529724f,
    0.51368516683578f},
    {0.44125133752823f, -0.18296840786934f, -0.91036283969879f,
    -0.77121639251709f, -0.60506558418274f, -1.71722173690796f,
    -0.06296425312757f, 0.16321496665478f, -0.51983392238617f,
    0.12430778145790f, -0.48812872171402f, 1.57438313961029f,
    -0.41212666034698f, 0.13606636226177f, -0.19498257339001f,
    0.54127103090286f, -0.09556620568037f, 0.41106402873993f,
    0.12121210992336f, -0.16321934759617f, 0.17328549921513f,
    -1.79711318016052f, 0.24763901531696f, -0.24819251894951f,
    -0.02635131776333f, 0.05680861324072f, 0.65447252988815f,
    -0.08954776823521f, 0.45625320076942f, -0.06587694585323f,
    1.04898631572723f, -0.38689950108528f, -0.04784417152405f,
    -0.06047931313515f, -0.05337904393673f, 0.12787625193596f,
    0.99561983346939f, -0.05717934668064f, -0.12373577803373f,
    -0.12251354008913f, 1.00368988513947f, 0.11499877274036f,
    1.18726706504822f, 0.32058981060982f, 0.17341020703316f,
    0.15628001093864f, 0.04484380781651f, -0.52209794521332f,
    -0.23075078427792f, -1.16345155239105f, -0.34754222631454f,
    -0.30944132804871f, 0.00564516242594f, -0.11384688317776f,
    -0.26999408006668f, -1.05819869041443f, 0.41482636332512f,
    -0.37794914841652f, -0.12631115317345f, 0.02719744481146f,
    0.15765109658241f, -1.25177669525146f, -0.10421551764011f,
    0.10903272032738f},
    {0.11445696651936f, -0.17746765911579f, -0.26418122649193f,
    -1.02092790603638f, 0.01202239375561f, -0.94798636436462f,
    0.33952528238297f, 0.42632535099983f, 0.39670750498772f,
    0.77670246362686f, -0.12196587771177f, -0.15709593892097f,
    -0.25114539265633f, 0.52105915546417f, -0.09158755838871f,
    0.04485897347331f, -0.06814201176167f, -0.44614464044571f,
    0.40087142586708f, -0.12320635467768f, 0.47902825474739f,
    -1.40626370906830f, 0.22660113871098f, -0.22759014368057f,
    0.18737956881523f, -0.05211319774389f, -0.57269406318665f,
    0.04021878167987f, 0.23889325559139f, -0.06752516329288f,
    0.01955107972026f, -0.16911390423775f, -0.09933563321829f,
    -0.56960481405258f, -0.13860172033310f, 0.06554117053747f,
    -0.43177708983421f, 0.48935174942017f, 0.08460228890181f,
    -0.58149260282516f, 0.50619733333588f, -0.15401922166348f,
    -2.74522089958191f, -0.35980117321014f, 0.16689926385880f,
    0.12956520915031f, -0.11582370847464f, -1.28423488140106f,
    -0.24363762140274f, -0.24213682115078f, 0.37476634979248f,
    -0.11795871704817f, -0.23833018541336f, 0.07787142693996f,
    -0.04008290171623f, 0.32771334052086f, 0.36225605010986f,
    0.06016724556684f, -0.14852042496204f, 0.18639446794987f,
    0.13475599884987f, -0.41471150517464f, 0.16060718894005f,
    -0.43574202060699f},
    {-0.07539205998182f, -0.02243929728866f, 0.48189032077789f,
    0.40467393398285f, -1.14262807369232f, -0.04889741912484f,
    -0.93014675378799f, -0.95264917612076f, -0.55361813306808f,
    -0.45121648907661f, -0.25286090373993f, -0.00561563298106f,
    0.20937407016754f, -1.02122426033020f, 0.02844110503793f,
    -1.01615607738495f, 0.05942974984646f, -0.38545891642570f,
    0.25000166893005f, -0.11018156260252f, -2.83967685699463f,
    0.07624447345734f, -0.80597674846649f, 0.36410707235336f,
    0.05084104835987f, -0.06505399942398f, 0.84295254945755f,
    0.27740556001663f, -0.38262429833412f, 0.09421460330486f,
    0.31038859486580f, 0.17155726253986f, 0.04666794463992f,
    0.77292698621750f, -0.03237549960613f, 0.21170006692410f,
    -0.85070288181305f, -0.02166637219489f, -0.00455035688356f,
    0.59823346138000f, 0.32852858304977f, -0.03145293891430f,
    -0.04183091968298f, 0.21495506167412f, -0.27241349220276f,
    -1.10492384433746f, -0.16480939090252f, 0.60696810483932f,
    0.43810138106346f, -0.17773503065109f, -0.21355266869068f,
    -0.11885494738817f, 0.06743912398815f, 0.01912761107087f,
    -1.04609632492065f, -0.00224902713671f, -0.37132728099823f,
    -0.34401315450668f, 0.42378804087639f, -0.30838397145271f,
    0.21724399924278f, 0.32650312781334f, -1.22725820541382f,
    0.41150024533272f},
    {0.19049501419067f, -0.13232751190662f, 0.06100954115391f,
    0.03048785403371f, 0.20002739131451f, -0.11757005751133f,
    0.04893045127392f, -0.00173180294223f, 0.02658127248287f,
    0.10643032193184f, -0.03285609185696f, -0.03523176908493f,
    -0.18693605065346f, -0.19339171051979f, 0.03626802563667f,
    -0.02991995215416f, 0.07124038040638f, 0.13848406076431f,
    -0.02932408079505f, -0.10942018032074f, 0.20926733314991f,
    -0.17037571966648f, -0.04040555655956f, -0.18458248674870f,
    -0.15603499114513f, -0.06422019004822f, 0.09132750332355f,
    -0.04847486689687f, 0.02228026464581f, 0.12832652032375f,
    -0.10915471613407f, -0.09694295376539f, -0.03463813662529f,
    0.15442870557308f, -0.17016051709652f, -0.14008769392967f,
    0.02185582555830f, 0.00407032668591f, -0.19311194121838f,
    -0.21145634353161f, -0.13781416416168f, 0.15901593863964f,
    0.06437899917364f, 0.01320949196815f, 0.08741430938244f,
    -0.18104498088360f, 0.08384449779987f, -0.02598105929792f,
    -0.11234427988529f, 0.20339487493038f, -0.08157207071781f,
    -0.09433861821890f, 0.04967965185642f, -0.02260737121105f,
    -0.21115989983082f, 0.13218872249126f, 0.04431209340692f,
    0.11062681674957f, -0.13145321607590f, 0.15733285248280f,
    0.20900352299213f, 0.20946060121059f, -0.01708810962737f,
    0.14533257484436f},
    {-0.45035824179649f, 0.18990448117256f, -0.10241317003965f,
    -0.20503577589989f, -0.49768599867821f, -0.33911815285683f,
    0.18557353317738f, 0.19710220396519f, 0.20485277473927f,
    -1.70853328704834f, 0.40965119004250f, 0.56704187393188f,
    0.00152264151257f, -0.23398941755295f, -0.31943720579147f,
    0.55486309528351f, -0.10856903344393f, 0.24248477816582f,
    0.26565617322922f, -0.06550829857588f, -0.41549503803253f,
    -0.49527132511139f, 0.59021836519241f, 0.25003316998482f,
    0.09759601205587f, -0.12701876461506f, 0.35276240110397f,
    -0.13259528577328f, -0.26269704103470f, 0.01088431477547f,
    0.18309438228607f, -0.28897297382355f, 0.00784412119538f,
    -0.38674491643906f, 0.01153000630438f, 0.36052602529526f,
    0.65962934494019f, 0.08589605987072f, 0.07672075182199f,
    0.51238793134689f, -0.73051571846008f, -0.18869087100029f,
    -0.32093530893326f, 0.15565872192383f, 0.17610871791840f,
    -0.24136546254158f, -0.03974825143814f, -0.01898552104831f,
    -0.11373513936996f, -0.00969694927335f, 0.29332756996155f,
    -0.05803144350648f, 0.07711602747440f, 0.12209559231997f,
    0.23130583763123f, -0.17782004177570f, 0.34717628359795f,
    -0.20732122659683f, 0.15851980447769f, -0.14853724837303f,
    -0.12426984310150f, -0.22009290754795f, 0.06984006613493f,
    -0.25118586421013f},
    {0.16990235447884f, 0.05161883682013f, 0.61270654201508f,
    0.65858316421509f, 0.21214453876019f, 0.59255605936050f,
    -0.81994569301605f, -0.32260259985924f, -0.34517690539360f,
    0.64514088630676f, -0.81735992431641f, 0.96412235498428f,
    0.28372085094452f, 0.02519907988608f, -0.09222231060266f,
    -0.09242519736290f, -0.09672775864601f, 0.22016333043575f,
    -0.07791952043772f, 0.02397147938609f, -0.09360647201538f,
    -0.03009609691799f, 0.25809758901596f, -0.14373844861984f,
    -0.16328877210617f, 0.12220251560211f, 0.22027461230755f,
    0.44008305668831f, -0.49768316745758f, -0.12703931331635f,
    0.19016638398170f, -0.09967575967312f, 0.12149640917778f,
    -0.34954759478569f, -0.01627045869827f, -1.02623248100281f,
    -0.81035262346268f, -0.68122035264969f, -0.05103420838714f,
    -0.50786417722702f, 0.41241091489792f, -0.00237966305576f,
    0.27947169542313f, 0.02949219383299f, 0.58588171005249f,
    -0.06825428456068f, 0.05928281694651f, 0.73572266101837f,
    0.62892121076584f, 0.00576429069042f, -1.17114365100861f,
    -0.06629625707865f, -0.10057531297207f, 0.05681885033846f,
    -1.16702353954315f, -0.44388589262962f, 0.29085096716881f,
    0.05659892037511f, -0.66015040874481f, -0.24169552326202f,
    -0.28085765242577f, 0.27613747119904f, -0.16788250207901f,
    -0.25673767924309f},
    {0.04712574183941f, 0.18058578670025f, 0.09477643668652f,
    0.00391665101051f, -0.11336074769497f, -0.01745294034481f,
    0.16743388772011f, 0.09467927366495f, -0.09545756131411f,
    0.12811829149723f, -0.16911607980728f, 0.10765293985605f,
    0.17862729728222f, -0.19868896901608f, 0.12503965198994f,
    0.02314224839211f, 0.17449729144573f, -0.16978409886360f,
    0.13117454946041f, -0.10620430856943f, -0.13372401893139f,
    -0.13549873232841f, 0.15270881354809f, -0.12991973757744f,
    -0.11735630780458f, -0.02989299595356f, -0.03047697246075f,
    0.17626829445362f, -0.15448583662510f, -0.08471731841564f,
    0.09424711763859f, -0.16824012994766f, -0.02793812751770f,
    -0.00768283009529f, -0.19984844326973f, -0.14872288703918f,
    0.06247834861279f, 0.04789336025715f, -0.17060387134552f,
    -0.03777457773685f, 0.06426490843296f, 0.16099141538143f,
    -0.07390290498734f, 0.14132530987263f, -0.18387959897518f,
    0.19027702510357f, -0.07581824064255f, -0.21376542747021f,
    -0.09690429270267f, 0.09254340827465f, -0.15762698650360f,
    -0.20355288684368f, -0.06172187626362f, -0.17296907305717f,
    0.21928739547729f, -0.04556222632527f, 0.11153452098370f,
    0.13461253046989f, 0.09169256687164f, 0.18165962398052f,
    0.13454283773899f, -0.04673415422440f, 0.12895847856998f,
    -0.18475583195686f},
    {0.13704799115658f, 0.10931982100010f, -0.01245859265327f,
    0.20001043379307f, -0.19503794610500f, 0.15125505626202f,
    -0.13916921615601f, -0.06653386354446f, -0.08304956555367f,
    -0.16450250148773f, 0.11729533970356f, -0.03443853557110f,
    -0.16581888496876f, 0.11069042980671f, 0.17925824224949f,
    -0.06518216431141f, 0.02907468378544f, 0.08768422901630f,
    0.20014525949955f, 0.20865614712238f, -0.18099594116211f,
    0.17812861502171f, -0.21025593578815f, -0.01439718902111f,
    0.02660083770752f, -0.20007644593716f, -0.20492538809776f,
    -0.08393152058125f, -0.13578656315804f, -0.09637679904699f,
    0.01696018874645f, 0.08681358397007f, -0.04218439757824f,
    -0.04733660817146f, -0.04447364807129f, -0.06442548334599f,
    0.11933957040310f, 0.06140576303005f, 0.02128897607327f,
    -0.16706657409668f, 0.10460905730724f, -0.10171173512936f,
    -0.21013696491718f, 0.09174923598766f, 0.03207215666771f,
    0.18562157452106f, 0.10787858068943f, -0.03876923024654f,
    -0.07721592485905f, 0.19756419956684f, -0.08556924760342f,
    0.20672683417797f, -0.04680497944355f, 0.13205151259899f,
    -0.12115609645844f, -0.12685082852840f, 0.06229393184185f,
    -0.00615109503269f, -0.17337524890900f, -0.21446506679058f,
    0.14324231445789f, 0.03757996857166f, -0.17713865637779f,
    -0.16123521327972f},
    {-0.05446678027511f, -0.18252333998680f, 0.92234849929810f,
    0.08728262782097f, -0.23052127659321f, 0.22995404899120f,
    0.14585827291012f, 0.15693984925747f, 0.67109042406082f,
    -0.56839603185654f, 0.72495180368423f, -0.98487830162048f,
    -0.45865991711617f, -0.34164059162140f, -0.09017765522003f,
    -0.72604113817215f, -0.20464329421520f, 1.11725115776062f,
    0.20476324856281f, -0.07533449679613f, 0.39411172270775f,
    0.37675696611404f, -0.67945593595505f, 0.06562893837690f,
    0.07345365732908f, -0.05271603539586f, -0.51697665452957f,
    0.32995939254761f, 0.06843940913677f, -0.10598839819431f,
    0.37748131155968f, -0.59191662073135f, -0.04061194136739f,
    -0.42734676599503f, -0.04038521647453f, -0.71892511844635f,
    -0.83670860528946f, -0.58150482177734f, -0.02051496505737f,
    -0.76103758811951f, -0.19017158448696f, -0.26810240745544f,
    -3.14089894294739f, -0.30631530284882f, 1.25581419467926f,
    0.09825479984283f, -0.17931383848190f, 0.66757690906525f,
    -0.46705693006516f, -0.46597343683243f, 0.05864124000072f,
    0.34835222363472f, -0.10998230427504f, 0.06870827078819f,
    0.22320666909218f, 0.20100753009319f, -0.44413650035858f,
    -0.12856847047806f, 0.32601708173752f, -0.03102729842067f,
    -0.61151450872421f, 0.35284054279327f, -0.07127965241671f,
    -0.42624235153198f},
    {-0.43117484450340f, -0.03493240848184f, -0.33874469995499f,
    -0.59513610601425f, -0.52851545810699f, -0.75278460979462f,
    -0.34468844532967f, 0.33981984853745f, 0.00593802100047f,
    0.24354018270969f, 0.55638271570206f, -0.19374959170818f,
    -0.20149418711662f, 0.39055359363556f, -0.14192193746567f,
    0.48263901472092f, -0.26717451214790f, -0.33844861388206f,
    0.30432119965553f, 0.11833285540342f, -0.52909690141678f,
    -0.35096135735512f, 0.66495043039322f, -0.01472884230316f,
    -0.03339216113091f, -0.20163860917091f, 0.02975151129067f,
    -0.46108368039131f, 0.16529996693134f, -0.19040976464748f,
    -0.53713005781174f, -0.05861431732774f, 0.15085107088089f,
    -0.19232547283173f, 0.12433530390263f, -0.28642672300339f,
    0.58304297924042f, 0.31621736288071f, -0.26296737790108f,
    0.39784550666809f, 0.16788013279438f, 0.08825363963842f,
    0.24595239758492f, -0.23825296759605f, -0.41529929637909f,
    -0.50457406044006f, -0.00978621654212f, -0.23963966965675f,
    -0.42316883802414f, 0.01327711064368f, 0.52595502138138f,
    0.68513512611389f, -0.09278685599566f, 0.07595454901457f,
    0.66981804370880f, -0.13544657826424f, -0.23273739218712f,
    0.45529329776764f, -0.38526546955109f, 0.31533229351044f,
    -0.77626848220825f, -0.43209400773048f, 0.79395025968552f,
    -0.12103193998337f},
    {0.08590356260538f, 0.04025332629681f, 0.16706356406212f,
    0.11647973954678f, -0.06543463468552f, 0.10733792185783f,
    -0.02160386741161f, 0.07824426889420f, -0.02818008139729f,
    -0.04229121655226f, -0.01284879446030f, -0.08694600313902f,
    0.20123460888863f, -0.18058766424656f, 0.21413744986057f,
    0.16107673943043f, -0.18340763449669f, -0.08014138042927f,
    -0.14571124315262f, -0.02114294469357f, 0.04119955003262f,
    -0.21389761567116f, 0.19416265189648f, 0.03226668387651f,
    0.15431897342205f, 0.15097658336163f, -0.04600679129362f,
    -0.16661652922630f, -0.09678524732590f, 0.10183937847614f,
    -0.06927151978016f, 0.05466466397047f, 0.02652856707573f,
    0.03521575778723f, -0.11430846154690f, 0.05910505726933f,
    0.01615336909890f, -0.12132272869349f, -0.19018466770649f,
    0.07303727418184f, 0.13613538444042f, -0.21642215549946f,
    0.16768184304237f, -0.21280856430531f, -0.22499710321426f,
    0.07015277445316f, -0.08514297008514f, 0.19641372561455f,
    -0.14743603765965f, 0.20531886816025f, 0.16525201499462f,
    -0.00782530009747f, -0.04005056619644f, -0.07134440541267f,
    -0.09113441407681f, -0.17175841331482f, -0.09887909889221f,
    0.00094996363623f, 0.15420727431774f, -0.09079547226429f,
    0.16138063371181f, -0.02245861291885f, 0.04681904241443f,
    0.12676315009594f},
    {0.01547746453434f, -0.07177455723286f, -0.03680820763111f,
    -0.04178512096405f, -0.09914585202932f, -0.05648296698928f,
    0.07269916683435f, -0.05700264871120f, -0.09653304517269f,
    -0.19408650696278f, 0.12890405952930f, 0.19469167292118f,
    -0.04798532649875f, 0.00829948484898f, -0.09581030905247f,
    -0.15149413049221f, -0.12362994253635f, -0.09998595714569f,
    0.14694777131081f, 0.04388977587223f, 0.13988621532917f,
    -0.20138135552406f, 0.17557246983051f, -0.19918434321880f,
    -0.17389531433582f, 0.10504172742367f, 0.10897238552570f,
    0.07130687683821f, -0.06739769876003f, 0.20171441137791f,
    -0.08713918924332f, 0.02946007996798f, -0.13589254021645f,
    0.01542380545288f, -0.09660211205482f, 0.17312107980251f,
    0.11002192646265f, 0.11270451545715f, 0.11769653856754f,
    0.07232645153999f, 0.16039811074734f, -0.10890063643456f,
    -0.07691583782434f, 0.03157134354115f, -0.05861501023173f,
    0.20914117991924f, 0.17989785969257f, -0.00428855186328f,
    0.20163713395596f, -0.02134549617767f, 0.02530205249786f,
    0.03197862207890f, -0.09193816781044f, -0.14365997910500f,
    -0.18722502887249f, -0.08401440083981f, 0.13509754836559f,
    -0.07331075519323f, -0.02755227684975f, 0.03733117878437f,
    0.14509709179401f, 0.17983750998974f, 0.09642267227173f,
    0.05640836805105f},
    {0.06460881978273f, 0.11450605094433f, 0.09804849326611f,
    -0.48605656623840f, -0.46472895145416f, -1.05381727218628f,
    -0.09643401205540f, 0.13216857612133f, 0.15773916244507f,
    -1.65220594406128f, 0.57321202754974f, -0.10228263586760f,
    -0.11034368723631f, 0.00816353224218f, -0.11864500492811f,
    0.00565825402737f, -0.19642615318298f, 0.30219885706902f,
    -0.09202038496733f, -0.12466189265251f, 0.05720992013812f,
    -0.97520524263382f, 0.18503364920616f, -0.22438035905361f,
    -0.01198565959930f, -0.11705846339464f, -0.05809977650642f,
    0.24893692135811f, -0.11982998996973f, 0.08567612618208f,
    -0.84635114669800f, -0.53397148847580f, -0.25228810310364f,
    -0.31811136007309f, -0.09413155168295f, -0.44755342602730f,
    -0.07688469439745f, -0.28376659750938f, 0.09072379022837f,
    0.25242525339127f, -1.35900390148163f, 0.07491467148066f,
    -0.22977837920189f, -0.39183673262596f, 0.12768837809563f,
    0.34761580824852f, 0.13634212315083f, -0.40466281771660f,
    -0.02005702257156f, 0.13014440238476f, 0.02792437374592f,
    0.03990306332707f, 0.12065012007952f, 0.09980153292418f,
    -0.23057605326176f, 0.15027724206448f, -0.05400768294930f,
    0.13142028450966f, -0.22889171540737f, -0.05416731908917f,
    -1.09997498989105f, -0.19506168365479f, -0.03558710962534f,
    -0.18780352175236f},
    {0.21969462931156f, -0.27646523714066f, 0.02755057066679f,
    -0.23998220264912f, -0.45327642560005f, -0.07809259742498f,
    0.00129411544185f, 0.32213762402534f, 0.71317148208618f,
    -1.80482614040375f, -0.15236845612526f, -0.34929981827736f,
    -0.50127893686295f, 0.17382554709911f, -0.25734043121338f,
    0.32201394438744f, 0.07923853397369f, -0.61170202493668f,
    -0.20186835527420f, -0.20929710566998f, -0.12784494459629f,
    -0.02753495238721f, 0.18406647443771f, -0.16752514243126f,
    -0.08255081623793f, -0.16686655580997f, -0.53282701969147f,
    0.29305982589722f, -0.29443800449371f, -0.11892605572939f,
    -0.98647844791412f, -0.45850554108620f, -0.10331942886114f,
    -0.03611196577549f, 0.00090873881709f, 0.00666530523449f,
    -0.16596445441246f, -0.35925468802452f, 0.08438115566969f,
    0.23957049846649f, -0.10560499876738f, -0.00128752738237f,
    0.40774700045586f, 0.17726455628872f, -2.51905655860901f,
    -0.05508959665895f, 0.06987911462784f, -4.74159288406372f,
    -0.03531265631318f, -1.24539721012115f, -0.65720748901367f,
    -1.69194614887238f, -0.21151655912399f, 0.01849254965782f,
    0.17528405785561f, -1.21567440032959f, -0.21497735381126f,
    0.18431229889393f, -0.43436262011528f, 0.37002533674240f,
    -1.20081651210785f, -0.45400267839432f, -0.31162989139557f,
    0.33589902520180f},
    {-0.91988539695740f, 0.04016110673547f, -0.31732800602913f,
    -0.34234213829041f, 0.15761016309261f, 0.00786298979074f,
    -0.47186228632927f, -0.34222230315208f, -0.46122190356255f,
    -1.27013087272644f, 0.27824851870537f, 0.36274930834770f,
    -0.22755011916161f, 0.24295909702778f, -0.47650218009949f,
    -0.38967519998550f, -0.22962053120136f, -0.91254478693008f,
    -0.28926077485085f, -0.24795538187027f, 0.54177945852280f,
    -0.85743892192841f, -0.28415974974632f, -0.02201055735350f,
    0.10947537422180f, -0.14875052869320f, -0.14322635531425f,
    -0.22026672959328f, 0.30850455164909f, 0.08516923338175f,
    -0.20427589118481f, -0.15277381241322f, -0.12851469218731f,
    0.55379939079285f, -0.21661715209484f, -1.87027215957642f,
    -0.24294145405293f, -0.68365019559860f, -0.14834648370743f,
    -0.59984016418457f, 0.16440698504448f, -0.10675052553415f,
    0.24463701248169f, 0.94085121154785f, -0.48512935638428f,
    0.47854027152061f, 0.04456775635481f, -0.37103033065796f,
    0.02040993049741f, -1.15354728698730f, 0.00396055262536f,
    -0.28336721658707f, -0.11659501492977f, -0.21222974359989f,
    -1.34235072135925f, 0.07510840147734f, 0.00696953572333f,
    0.42318555712700f, -0.61363852024078f, 0.15272045135498f,
    -0.56039679050446f, 0.56074649095535f, -0.45416399836540f,
    -0.34459760785103f},
    {-0.16480025649071f, 0.06003518402576f, 0.11070252954960f,
    0.15105322003365f, 0.17696732282639f, -0.12247793376446f,
    -0.02469723299146f, -0.14609177410603f, -0.12168741971254f,
    -0.13436865806580f, -0.06810994446278f, 0.08309958130121f,
    -0.03851725161076f, 0.16354061663151f, -0.13842165470123f,
    -0.22127524018288f, -0.11957216262817f, 0.00416440889239f,
    -0.03167836368084f, 0.10883124172688f, 0.04329256713390f,
    -0.04710869118571f, -0.01477143168449f, -0.14194343984127f,
    0.10304625332355f, 0.07157535851002f, -0.04655966162682f,
    0.11846926063299f, 0.04422673210502f, -0.10933133959770f,
    -0.11471274495125f, 0.08807730674744f, 0.16844283044338f,
    0.09075834602118f, -0.21476806700230f, 0.11472921073437f,
    -0.16203504800797f, -0.04499194398522f, -0.15898963809013f,
    -0.08540738373995f, -0.07803143560886f, -0.09690264612436f,
    0.12957841157913f, 0.13850022852421f, -0.00408930843696f,
    -0.16723252832890f, 0.21295176446438f, -0.11520466953516f,
    0.12950098514557f, 0.08109540492296f, -0.05001734197140f,
    -0.01056018471718f, -0.01499396562576f, -0.13662856817245f,
    0.15635250508785f, -0.06763564795256f, 0.10877992212772f,
    0.00789451505989f, 0.22919058799744f, -0.10609358549118f,
    -0.02056611701846f, 0.20464208722115f, 0.16002957522869f,
    -0.04567814990878f},
    {0.24280914664268f, -0.15267217159271f, 0.01523904036731f,
    0.53436464071274f, 0.08642215281725f, 0.16190983355045f,
    -0.34851038455963f, -0.01817719452083f, 0.06642805784941f,
    0.44707989692688f, -0.82978600263596f, 0.12367635220289f,
    0.49505916237831f, -0.05928236246109f, -0.24039055407047f,
    -0.19325357675552f, 0.12341255694628f, -0.74699223041534f,
    -0.05465693771839f, -0.13815249502659f, -0.19078941643238f,
    -0.05956839025021f, -0.22876060009003f, 0.35363760590553f,
    -0.08046571910381f, -0.23903253674507f, -0.04484848678112f,
    0.01912281848490f, 0.26856330037117f, -0.03430058062077f,
    0.35521152615547f, 0.04701717570424f, 0.06050308793783f,
    0.09012957662344f, -0.21799865365028f, 0.14009571075439f,
    -0.22379420697689f, 0.66470289230347f, 0.02353507094085f,
    -0.21508388221264f, 0.06472656875849f, -0.12012157589197f,
    0.29054936766624f, -0.18212182819843f, -0.18205074965954f,
    -0.00260259630159f, -0.08292374759912f, 0.14326310157776f,
    -0.56871390342712f, -0.50371235609055f, 0.43034353852272f,
    0.21534122526646f, 0.10586205869913f, -0.00590956304222f,
    -0.15029323101044f, 0.88745635747910f, -0.10915695875883f,
    0.38728615641594f, -0.06596706062555f, 0.05867171287537f,
    0.36241450905800f, -0.08045677095652f, -0.44897702336311f,
    0.04844527691603f},
    {-0.19956959784031f, 0.06009493768215f, 0.07328750193119f,
    -0.14599971473217f, 0.03365774452686f, -0.14092195034027f,
    0.19378788769245f, -0.17192894220352f, 0.17900133132935f,
    -0.20548132061958f, -0.18645693361759f, -0.08288443088531f,
    -0.02068568766117f, 0.20726801455021f, 0.13182537257671f,
    -0.08322997391224f, 0.11685623228550f, 0.10575916618109f,
    0.05669622495770f, -0.19497269392014f, -0.21285037696362f,
    -0.04745016992092f, -0.13228270411491f, -0.12928697466850f,
    0.00903128087521f, -0.13386152684689f, -0.16025185585022f,
    -0.07622030377388f, 0.11339277774096f, 0.10522066056728f,
    -0.15849918127060f, 0.18024195730686f, 0.16876210272312f,
    0.21045292913914f, 0.10641707479954f, 0.18140591681004f,
    -0.15596479177475f, -0.04680977761745f, 0.02169764041901f,
    0.02557491697371f, 0.10315167158842f, 0.11979795992374f,
    -0.01811543107033f, -0.15263351798058f, 0.12006027996540f,
    0.03170865774155f, 0.02843368053436f, -0.08755514025688f,
    -0.11977834254503f, 0.11412407457829f, -0.08405525982380f,
    0.09672780334949f, -0.08152391016483f, 0.18018381297588f,
    0.15721930563450f, 0.13678908348083f, 0.11964832246304f,
    -0.15553577244282f, 0.14327032864094f, -0.19348585605621f,
    -0.17714211344719f, -0.04860375821590f, 0.15121959149837f,
    0.10483346879482f},
    {-0.18369603157043f, -0.13995635509491f, -1.18055975437164f,
    -0.37190502882004f, 0.25987657904625f, -0.13868837058544f,
    0.04309020191431f, 0.56107962131500f, 0.25027927756310f,
    -0.71565771102905f, 0.64256095886230f, 0.61443358659744f,
    -0.25442260503769f, 0.35351619124413f, -0.02118135988712f,
    0.27820622920990f, -0.09116332232952f, -0.03633793070912f,
    0.14202171564102f, 0.04123450815678f, -0.61872160434723f,
    -2.97721314430237f, 1.50355935096741f, -0.10430400818586f,
    0.03658016026020f, 0.18107117712498f, -0.32440799474716f,
    -0.28657531738281f, 0.06046924740076f, 0.08195467293262f,
    0.02071032114327f, 0.10227478295565f, -0.15609605610371f,
    0.24380235373974f, 0.19763372838497f, -0.86391657590866f,
    0.08730456978083f, 0.67745763063431f, -0.05550935864449f,
    -0.50114744901657f, -0.08573533594608f, 0.10356108844280f,
    0.52728611230850f, 0.12026997655630f, 0.79083997011185f,
    -0.53820222616196f, -0.11126954108477f, -0.01030226889998f,
    0.49783408641815f, 0.26240384578705f, 0.01634193211794f,
    0.39158868789673f, -0.16374622285366f, 0.05079044401646f,
    -0.63739138841629f, -0.02093503624201f, 0.78861027956009f,
    0.18639941513538f, -0.10955121368170f, -0.51043319702148f,
    -0.86103034019470f, -0.44540098309517f, 0.44072264432907f,
    -0.50134360790253f},
    {0.29840666055679f, -0.09063623845577f, -0.17214260995388f,
    -0.14011563360691f, -1.09289348125458f, -0.55780273675919f,
    -0.45294269919395f, 0.39409336447716f, -0.63709986209869f,
    0.38572126626968f, -0.26723688840866f, -0.07917004823685f,
    -0.60011398792267f, 0.15688042342663f, -0.12100919336081f,
    0.40176820755005f, -0.03899840638041f, 0.13939289748669f,
    0.46779265999794f, 0.07343672215939f, -0.30260735750198f,
    0.13957010209560f, -0.26848116517067f, 0.20561483502388f,
    -0.08882548660040f, -0.07523931562901f, 0.54006749391556f,
    -0.17495018243790f, 0.19206804037094f, 0.03149129822850f,
    0.54604214429855f, 0.26965549588203f, -0.04507102072239f,
    0.27883738279343f, -0.15675747394562f, -0.16839197278023f,
    0.16007962822914f, 0.05358220264316f, -0.03405825421214f,
    -0.25039979815483f, -2.16971492767334f, 0.08500713109970f,
    -0.70373642444611f, 0.26057311892509f, -1.32856559753418f,
    0.09958953410387f, -0.04046492278576f, -0.14441390335560f,
    -0.60712116956711f, 0.20668959617615f, 0.17974798381329f,
    -0.99092698097229f, -0.22144287824631f, -0.08878035098314f,
    -0.21956796944141f, -0.32727029919624f, -0.38986095786095f,
    0.13724921643734f, -0.29296836256981f, 0.14132274687290f,
    -1.77435362339020f, -0.25999101996422f, -0.10089440643787f,
    0.34678933024406f},
    {-0.45967748761177f, 0.03946483880281f, -0.17965513467789f,
    -0.13761696219444f, -0.07421130686998f, -0.59849303960800f,
    -0.09825704246759f, 0.25890535116196f, -0.14950487017632f,
    -0.41745725274086f, 0.27316695451736f, 0.04940380156040f,
    -0.15905088186264f, 0.14765018224716f, -0.84571266174316f,
    0.15226387977600f, -0.27063670754433f, -0.00724772457033f,
    0.06767892837524f, 0.06406063586473f, -1.52749085426331f,
    -2.52477312088013f, -0.75029164552689f, 0.09021407365799f,
    -0.21941053867340f, 0.06702578812838f, 0.19012206792831f,
    -0.50291341543198f, -0.13049033284187f, -0.13635678589344f,
    0.13058099150658f, -0.34553185105324f, 0.01601750403643f,
    -0.02425872907043f, -0.01081346627325f, -0.17340235412121f,
    -0.21141961216927f, -0.63443702459335f, -0.25402218103409f,
    -0.27576813101768f, -0.36141645908356f, 0.09502055495977f,
    -0.20322246849537f, 0.35732296109200f, -0.33290639519691f,
    -1.09276247024536f, -0.03665436059237f, -0.32497689127922f,
    -0.04280701279640f, 0.21384643018246f, -0.38525402545929f,
    -0.10446929186583f, -0.02218508534133f, -0.27831748127937f,
    -0.29250842332840f, 0.06893500685692f, 0.00218195654452f,
    -0.15167985856533f, 0.04473908618093f, 0.02647288888693f,
    -0.13465395569801f, 0.14718689024448f, -1.34394311904907f,
    0.11937175691128f},
    {0.10421974956989f, -0.07433648407459f, -0.01813183352351f,
    -0.55096048116684f, -3.68823933601379f, -0.65262836217880f,
    -1.51903450489044f, 0.15206263959408f, 0.06467983126640f,
    0.31175473332405f, -0.75280392169952f, -0.71791869401932f,
    0.26210969686508f, 0.30350416898727f, 0.00421935971826f,
    0.19158695638180f, -0.03075679577887f, 1.01816642284393f,
    0.12051580846310f, -0.15360078215599f, -0.27176243066788f,
    -1.06081855297089f, -0.22260466217995f, -0.05370439961553f,
    -0.00786392390728f, -0.08051156252623f, -1.35528671741486f,
    -0.21637150645256f, 0.46634012460709f, -0.07624442875385f,
    -0.68959313631058f, -0.16715648770332f, -0.15764261782169f,
    -0.04968710988760f, -0.09786859899759f, 0.37850436568260f,
    -0.13645441830158f, -0.66834199428558f, -0.22919584810734f,
    0.03037464991212f, 0.42291176319122f, 0.12002764642239f,
    -0.74388092756271f, 0.27375826239586f, -0.00488118547946f,
    -0.73974698781967f, 0.16469162702560f, -1.18435692787170f,
    -0.37437096238136f, -0.94374567270279f, 0.48862436413765f,
    -1.44428074359894f, -0.07436386495829f, 0.17587506771088f,
    -0.34058424830437f, -0.14478415250778f, -0.01007246039808f,
    -0.00622828863561f, -1.50261449813843f, -0.05155158415437f,
    -1.14869499206543f, -0.33770337700844f, -0.26232066750526f,
    0.44700217247009f},
    {-0.17672923207283f, 0.09184448421001f, -0.05390498787165f,
    0.02681683562696f, -0.06062962114811f, -0.14824049174786f,
    0.05625049397349f, -0.00610696058720f, -0.21192142367363f,
    0.19561289250851f, 0.03179461508989f, -0.20537894964218f,
    -0.04097283631563f, -0.06649808585644f, 0.01533818524331f,
    -0.05743357166648f, 0.12589557468891f, 0.09296937286854f,
    0.09050759673119f, 0.15732009708881f, -0.10008901357651f,
    -0.02285245433450f, -0.17759513854980f, -0.14903368055820f,
    -0.12521103024483f, -0.02513903379440f, 0.14839395880699f,
    -0.21116398274899f, -0.07022882997990f, 0.08654496818781f,
    -0.19536928832531f, 0.12193193286657f, 0.21214427053928f,
    0.13194437325001f, -0.02408723905683f, 0.11516424268484f,
    0.14035102725029f, -0.20589964091778f, 0.06906543672085f,
    0.11692428588867f, 0.07106216996908f, 0.00592340668663f,
    -0.21800339221954f, -0.03105248697102f, -0.00947171915323f,
    0.12079749256372f, -0.21095657348633f, -0.14297594130039f,
    -0.17674775421619f, -0.06080983579159f, 0.04770115017891f,
    -0.05717934668064f, 0.08383913338184f, 0.17715556919575f,
    -0.14431512355804f, 0.10712411999702f, -0.05865087360144f,
    0.12216939032078f, 0.10874168574810f, 0.12801671028137f,
    0.05881349742413f, 0.03798235580325f, -0.00856163259596f,
    -0.07506477087736f},
    {-0.01745283603668f, 0.01687976717949f, -0.17994998395443f,
    0.10949982702732f, 0.03706429153681f, 0.16594205796719f,
    0.21223713457584f, -0.05769050493836f, -0.16180975735188f,
    0.13675998151302f, 0.14058725535870f, 0.17906871438026f,
    0.02627824060619f, -0.18952803313732f, -0.12510868906975f,
    -0.12552274763584f, 0.00593434274197f, 0.16725313663483f,
    -0.15748244524002f, 0.07112018764019f, -0.09334360808134f,
    -0.21381543576717f, -0.08382874727249f, -0.13526070117950f,
    0.19729106128216f, -0.10513249039650f, -0.08052350580692f,
    0.06946165859699f, -0.08470353484154f, -0.07661570608616f,
    -0.11538735032082f, -0.05738694965839f, -0.20925474166870f,
    -0.15769733488560f, 0.08236412703991f, -0.03273230791092f,
